#include "reservoir.h"
const VAL_T __in_weights[] = {
  -0.100000,
  0.100000,
  0.100000,
  0.100000,
  -0.100000,
  -0.100000,
  -0.100000,
  0.100000,
  -0.100000,
  -0.100000,
  0.100000,
  0.100000,
  -0.100000,
  0.100000,
  0.100000,
  0.100000,
  -0.100000,
  -0.100000,
  0.100000,
  0.100000,
  0.100000,
  0.100000,
  -0.100000,
  0.100000,
  0.100000,
  0.100000,
  -0.100000,
  -0.100000,
  0.100000,
  0.100000,
  0.100000,
  0.100000,
  -0.100000,
  0.100000,
  -0.100000,
  0.100000,
  0.100000,
  -0.100000,
  -0.100000,
  -0.100000,
  0.100000,
  0.100000,
  -0.100000,
  0.100000,
  -0.100000,
  -0.100000,
  0.100000,
  0.100000,
  0.100000,
  0.100000,
  0.100000,
  0.100000,
  0.100000,
  -0.100000,
  -0.100000,
  -0.100000,
  0.100000,
  -0.100000,
  -0.100000,
  0.100000,
  0.100000,
  0.100000,
  0.100000,
  -0.100000,
  -0.100000,
  0.100000,
  0.100000,
  -0.100000,
  0.100000,
  -0.100000,
  0.100000,
  -0.100000,
  0.100000,
  -0.100000,
  0.100000,
  0.100000,
  0.100000,
  0.100000,
  0.100000,
  0.100000,
  0.100000,
  0.100000,
  0.100000,
  0.100000,
  0.100000,
  0.100000,
  0.100000,
  0.100000,
  -0.100000,
  0.100000,
  -0.100000,
  -0.100000,
  0.100000,
  0.100000,
  0.100000,
  0.100000,
  -0.100000,
  -0.100000,
  0.100000,
  0.100000
};
const VAL_T __res_weights[] = {
  0.000245,
  -0.013844,
  0.027784,
  -0.028285,
  -0.013260,
  -0.000352,
  -0.003882,
  0.010622,
  -0.005361,
  0.047204,
  0.031096,
  -0.035215,
  0.047202,
  -0.018977,
  0.031635,
  0.009957,
  -0.026247,
  -0.039850,
  0.036690,
  -0.001884,
  0.027189,
  0.012625,
  -0.010461,
  -0.029106,
  0.013649,
  0.017793,
  -0.017933,
  0.021439,
  0.011561,
  -0.007078,
  0.004994,
  0.001300,
  -0.029536,
  -0.036336,
  -0.022280,
  0.041736,
  0.026993,
  0.006708,
  0.005254,
  -0.016997,
  -0.005479,
  0.009310,
  0.051990,
  -0.007834,
  0.007109,
  0.024903,
  -0.006490,
  -0.009142,
  -0.004842,
  0.020039,
  -0.039758,
  -0.009439,
  0.032347,
  0.008805,
  0.016635,
  -0.022291,
  0.009326,
  0.022960,
  -0.015807,
  0.031010,
  0.002955,
  -0.010047,
  -0.026354,
  0.039277,
  -0.042122,
  0.009737,
  -0.007649,
  0.018602,
  0.022827,
  0.001720,
  -0.053877,
  0.039214,
  0.010458,
  -0.038561,
  -0.036894,
  0.003108,
  -0.002085,
  -0.020363,
  0.010842,
  -0.009273,
  0.029845,
  0.014849,
  0.023822,
  0.015792,
  0.002840,
  -0.009418,
  -0.041155,
  -0.003293,
  -0.036316,
  0.003006,
  0.071935,
  0.001332,
  0.053735,
  -0.013804,
  0.049156,
  0.026331,
  -0.013598,
  -0.070992,
  -0.007439,
  0.024780,
  0.053846,
  0.031723,
  0.020341,
  -0.036448,
  -0.018143,
  0.030307,
  0.024882,
  -0.025305,
  -0.057887,
  -0.005948,
  -0.005723,
  0.004831,
  -0.031961,
  -0.017881,
  -0.027455,
  -0.008982,
  -0.015389,
  -0.008580,
  0.042259,
  0.029606,
  0.004126,
  0.045025,
  0.042908,
  0.039806,
  -0.019520,
  -0.033339,
  0.031693,
  0.003758,
  0.029852,
  -0.029435,
  -0.009833,
  0.009937,
  -0.028844,
  -0.019270,
  0.018894,
  0.028716,
  0.008552,
  0.008988,
  -0.058557,
  0.028481,
  0.041421,
  0.023727,
  -0.113685,
  0.003454,
  -0.017752,
  0.030985,
  -0.020121,
  0.011021,
  -0.005948,
  0.059377,
  0.008515,
  -0.005011,
  0.011475,
  0.015644,
  -0.021884,
  -0.047176,
  -0.030778,
  0.034661,
  -0.003358,
  0.016409,
  -0.028273,
  0.005075,
  0.013555,
  -0.001714,
  -0.006131,
  0.040000,
  -0.018893,
  -0.013818,
  0.008240,
  0.031327,
  0.019128,
  -0.020476,
  -0.031582,
  0.025857,
  0.018602,
  0.064379,
  -0.034157,
  0.014812,
  0.027970,
  0.051937,
  0.043017,
  0.017760,
  -0.012538,
  0.030305,
  -0.037525,
  -0.065650,
  0.023853,
  -0.010097,
  -0.026303,
  0.023414,
  -0.023416,
  -0.009123,
  -0.001519,
  0.044531,
  0.053256,
  0.009683,
  -0.014985,
  0.054860,
  -0.002244,
  0.000658,
  -0.022186,
  0.037494,
  0.031279,
  -0.010890,
  0.023929,
  -0.024630,
  0.042724,
  -0.012803,
  -0.013645,
  0.024079,
  0.022441,
  0.068168,
  -0.001531,
  0.048357,
  -0.083997,
  -0.004035,
  -0.013796,
  0.054760,
  -0.010373,
  -0.028539,
  0.015861,
  0.010296,
  0.000211,
  0.005415,
  -0.007349,
  0.011857,
  -0.022325,
  0.011442,
  -0.017002,
  -0.013354,
  -0.008822,
  -0.010157,
  -0.043025,
  0.022837,
  -0.010471,
  -0.027533,
  0.042138,
  0.010651,
  -0.044188,
  -0.011985,
  0.072805,
  -0.000421,
  -0.044342,
  0.078839,
  0.029106,
  0.012223,
  0.009036,
  -0.043024,
  -0.007400,
  0.010844,
  0.005338,
  0.006906,
  -0.007501,
  -0.029888,
  -0.036335,
  -0.033996,
  -0.029668,
  -0.014068,
  -0.066084,
  0.001663,
  -0.015554,
  0.031636,
  -0.017624,
  0.030400,
  -0.003800,
  0.033645,
  -0.034176,
  0.006689,
  0.054345,
  0.014671,
  0.016602,
  0.004695,
  0.012891,
  -0.003132,
  0.020595,
  -0.049891,
  0.014065,
  0.022926,
  -0.020186,
  0.002010,
  0.070298,
  0.011409,
  -0.015051,
  0.000743,
  0.028736,
  -0.076317,
  0.100027,
  0.012542,
  0.019419,
  -0.033560,
  0.055878,
  -0.011871,
  -0.002217,
  0.019504,
  -0.065352,
  -0.008282,
  -0.001721,
  -0.021880,
  0.002744,
  -0.020999,
  -0.015646,
  -0.008231,
  -0.003326,
  -0.016585,
  0.004015,
  -0.053429,
  -0.018740,
  -0.003397,
  0.016005,
  0.035422,
  0.012753,
  -0.021346,
  0.049821,
  0.033024,
  -0.047043,
  -0.007813,
  0.027259,
  -0.044130,
  -0.016140,
  0.078518,
  -0.010004,
  -0.020793,
  0.043318,
  0.058709,
  0.061022,
  -0.012975,
  0.008550,
  -0.008993,
  -0.069489,
  -0.015443,
  -0.009227,
  0.034954,
  0.008978,
  0.028563,
  0.017049,
  -0.002205,
  0.014943,
  -0.035046,
  0.015315,
  -0.021577,
  -0.008643,
  0.016718,
  0.025160,
  0.031871,
  -0.027062,
  0.018707,
  -0.037909,
  -0.009553,
  0.001655,
  0.028388,
  -0.037074,
  -0.012023,
  0.004764,
  0.013015,
  -0.026710,
  0.053516,
  -0.020124,
  0.016867,
  0.020423,
  -0.001728,
  0.018852,
  -0.007206,
  -0.021783,
  0.023429,
  -0.003466,
  -0.043378,
  -0.007285,
  0.036442,
  0.028495,
  -0.023211,
  -0.031534,
  -0.024447,
  0.000036,
  0.028035,
  0.005853,
  -0.028395,
  0.012799,
  0.007061,
  0.037828,
  -0.007748,
  0.045805,
  -0.033588,
  0.023264,
  -0.013114,
  -0.011390,
  -0.019324,
  -0.085861,
  -0.017518,
  0.010951,
  -0.055339,
  -0.001388,
  -0.041488,
  -0.054733,
  0.017002,
  -0.018077,
  0.003493,
  -0.014424,
  -0.010344,
  0.012281,
  0.043969,
  0.024549,
  0.024388,
  -0.034189,
  -0.017947,
  0.024806,
  0.029991,
  0.031431,
  0.031860,
  -0.042879,
  -0.024442,
  -0.015623,
  0.007531,
  0.036225,
  -0.024039,
  -0.006075,
  -0.027070,
  -0.032090,
  -0.030542,
  -0.044200,
  -0.019202,
  0.037293,
  0.037908,
  -0.023268,
  -0.007609,
  -0.081331,
  -0.011567,
  0.068510,
  -0.010699,
  0.015665,
  0.068458,
  0.039980,
  -0.015926,
  -0.009778,
  0.009556,
  -0.068988,
  0.028172,
  -0.040124,
  -0.010250,
  -0.010011,
  -0.049401,
  -0.010041,
  -0.019012,
  -0.035871,
  0.013063,
  0.002224,
  -0.022873,
  0.014715,
  0.003539,
  0.015213,
  0.006455,
  0.026712,
  -0.095217,
  -0.039172,
  0.006088,
  0.005246,
  0.007201,
  -0.042862,
  -0.020115,
  -0.069593,
  0.036860,
  -0.053811,
  -0.018718,
  0.047332,
  -0.028254,
  -0.040578,
  -0.024922,
  0.032971,
  -0.014462,
  -0.040949,
  -0.022024,
  0.032941,
  0.008899,
  0.032693,
  0.025651,
  0.012474,
  0.051406,
  0.010467,
  -0.027939,
  0.023535,
  0.024194,
  -0.009471,
  0.023308,
  -0.012129,
  -0.051270,
  0.053389,
  0.040833,
  -0.015014,
  -0.055707,
  0.023244,
  -0.000664,
  0.051525,
  -0.008022,
  0.045553,
  0.023732,
  0.065591,
  -0.007865,
  0.003003,
  0.009479,
  0.037762,
  0.040849,
  0.015821,
  0.004196,
  -0.028806,
  0.015920,
  0.015624,
  0.001810,
  0.016306,
  -0.025935,
  0.004380,
  -0.031205,
  0.021223,
  0.011008,
  -0.013843,
  -0.002820,
  -0.031312,
  0.019223,
  -0.008941,
  -0.031173,
  -0.019626,
  0.008597,
  -0.017900,
  -0.061815,
  0.018388,
  0.023726,
  -0.002594,
  0.003616,
  0.028966,
  -0.050380,
  -0.013652,
  0.034165,
  -0.010355,
  0.013335,
  -0.011444,
  0.008583,
  -0.010279,
  -0.077528,
  -0.046459,
  -0.048952,
  0.028526,
  0.021666,
  0.046001,
  0.042113,
  0.067937,
  -0.018484,
  -0.045938,
  -0.017517,
  -0.050404,
  -0.029688,
  -0.043179,
  -0.022323,
  -0.006104,
  0.055843,
  0.017481,
  0.029607,
  0.005691,
  -0.043767,
  0.013799,
  -0.011459,
  0.015392,
  -0.016171,
  -0.039832,
  0.045274,
  -0.069838,
  -0.023553,
  0.037307,
  0.028987,
  0.002740,
  -0.012532,
  0.027636,
  0.041426,
  0.015958,
  0.024115,
  0.022611,
  0.040380,
  -0.016571,
  -0.004742,
  -0.094378,
  -0.023540,
  0.002218,
  -0.056644,
  0.005778,
  0.002824,
  -0.000159,
  -0.007817,
  -0.024120,
  0.021991,
  0.041889,
  -0.045864,
  0.011547,
  -0.003124,
  0.027659,
  0.004391,
  0.007963,
  0.027043,
  0.000599,
  0.023545,
  -0.028204,
  0.038647,
  -0.072538,
  -0.005796,
  0.076984,
  0.041583,
  0.073643,
  -0.031379,
  0.000496,
  0.020343,
  0.007646,
  -0.009716,
  0.040263,
  0.033809,
  -0.047337,
  0.017898,
  0.023147,
  -0.005694,
  0.023706,
  0.030119,
  -0.051581,
  -0.002355,
  0.044080,
  -0.013951,
  -0.013596,
  0.028587,
  0.031422,
  -0.034643,
  -0.072105,
  0.017257,
  0.007151,
  0.005272,
  0.003581,
  0.034939,
  -0.046247,
  0.016182,
  -0.074850,
  0.028885,
  0.023752,
  0.018410,
  -0.007764,
  -0.019770,
  0.010456,
  -0.033216,
  0.044016,
  0.029105,
  -0.000046,
  -0.075058,
  0.046587,
  0.019468,
  0.025111,
  -0.000554,
  -0.026548,
  -0.044474,
  0.000522,
  -0.009055,
  0.000773,
  0.007621,
  0.012318,
  -0.032004,
  0.007663,
  -0.013217,
  0.018407,
  0.009547,
  0.002494,
  0.068853,
  0.012544,
  0.032158,
  0.023882,
  0.035581,
  -0.050390,
  -0.005916,
  -0.049380,
  -0.004949,
  0.050663,
  -0.020996,
  -0.054593,
  0.012621,
  0.029463,
  0.009872,
  0.005565,
  0.001948,
  0.000256,
  0.020946,
  0.017691,
  -0.058441,
  -0.017924,
  -0.021209,
  -0.010524,
  -0.027853,
  0.024294,
  -0.033825,
  -0.035966,
  -0.020463,
  -0.002627,
  0.062932,
  -0.068948,
  -0.052827,
  0.021855,
  -0.023815,
  -0.009427,
  0.077899,
  0.002615,
  0.045210,
  -0.039011,
  -0.027084,
  0.018642,
  -0.006754,
  0.022807,
  -0.008889,
  -0.020843,
  -0.003282,
  -0.015150,
  -0.042231,
  -0.054133,
  -0.038651,
  -0.007446,
  0.016980,
  -0.040036,
  -0.037237,
  -0.000583,
  0.004750,
  -0.029020,
  -0.053280,
  -0.032469,
  0.044228,
  -0.025548,
  0.028687,
  -0.016318,
  -0.030980,
  0.003958,
  -0.024851,
  -0.009814,
  0.008778,
  0.010957,
  -0.012855,
  -0.032678,
  -0.036837,
  0.001548,
  0.000216,
  -0.030256,
  -0.012859,
  0.027438,
  -0.042487,
  -0.041873,
  -0.003913,
  -0.015838,
  0.006429,
  0.085336,
  -0.013526,
  -0.052038,
  0.029621,
  0.000022,
  -0.044114,
  0.006570,
  -0.015118,
  -0.033184,
  0.080088,
  0.030705,
  0.037047,
  0.047741,
  -0.016395,
  0.026477,
  0.035980,
  -0.077671,
  -0.025807,
  -0.009783,
  -0.026203,
  -0.018158,
  -0.010133,
  -0.031291,
  0.025931,
  -0.055239,
  0.007254,
  0.016625,
  0.005894,
  0.034366,
  0.007091,
  -0.006826,
  -0.044575,
  -0.004197,
  -0.026666,
  0.001395,
  0.003313,
  0.014043,
  -0.030442,
  0.006004,
  -0.015380,
  -0.015195,
  0.016366,
  -0.018417,
  0.040858,
  0.053456,
  -0.031542,
  0.003741,
  0.015337,
  -0.016602,
  0.057346,
  -0.007574,
  0.039566,
  -0.001904,
  0.007878,
  0.012984,
  0.013538,
  0.001766,
  -0.004669,
  0.058128,
  0.008642,
  -0.040663,
  0.040913,
  0.030831,
  -0.013407,
  -0.025223,
  0.032178,
  0.008278,
  0.002811,
  -0.015718,
  -0.028562,
  0.023891,
  0.023971,
  -0.001491,
  -0.064571,
  0.042069,
  0.045735,
  0.005238,
  -0.086645,
  -0.028685,
  -0.035434,
  0.008046,
  0.041435,
  0.036059,
  -0.010950,
  0.019252,
  0.023418,
  -0.082871,
  -0.017174,
  -0.023708,
  -0.095552,
  0.018406,
  -0.028909,
  0.066025,
  0.001288,
  -0.036624,
  -0.033787,
  0.022099,
  -0.015205,
  0.062597,
  0.004706,
  0.002418,
  -0.023374,
  -0.021075,
  0.017211,
  -0.001304,
  0.017852,
  -0.066988,
  -0.028457,
  -0.015914,
  -0.039669,
  0.049690,
  -0.061640,
  -0.027747,
  -0.027686,
  -0.026143,
  -0.025471,
  0.002172,
  0.016084,
  0.023766,
  0.009183,
  0.035316,
  0.021699,
  -0.041814,
  -0.029343,
  -0.054703,
  0.010121,
  -0.028852,
  0.022560,
  0.011381,
  -0.011502,
  0.021588,
  0.024430,
  -0.050097,
  -0.030187,
  -0.009530,
  -0.047693,
  -0.028880,
  -0.036912,
  -0.054151,
  0.000186,
  -0.046471,
  0.000210,
  -0.006117,
  -0.022552,
  -0.003819,
  0.004489,
  -0.009155,
  -0.053615,
  0.049742,
  -0.015621,
  -0.022398,
  -0.000715,
  0.048641,
  -0.000849,
  -0.012437,
  0.015943,
  -0.028767,
  -0.038556,
  -0.022257,
  -0.014223,
  -0.053799,
  -0.006775,
  -0.016911,
  0.007809,
  0.048083,
  -0.041203,
  -0.020055,
  -0.035975,
  0.022032,
  -0.064024,
  0.027874,
  0.016010,
  -0.012640,
  -0.023329,
  0.005524,
  -0.060460,
  0.007978,
  0.019591,
  0.033058,
  0.000880,
  -0.061897,
  -0.009843,
  -0.000130,
  0.014186,
  0.002387,
  0.013389,
  0.042458,
  -0.036079,
  -0.031294,
  0.049536,
  0.016603,
  -0.030804,
  0.066990,
  0.033136,
  0.002493,
  -0.035192,
  -0.039132,
  0.012386,
  0.024602,
  -0.012175,
  -0.034701,
  0.021934,
  0.002012,
  -0.019545,
  -0.024163,
  0.007496,
  -0.038260,
  0.028644,
  -0.013042,
  0.013724,
  -0.017503,
  0.029355,
  0.058783,
  -0.028680,
  -0.026870,
  0.030228,
  -0.071622,
  0.050050,
  -0.015506,
  0.047415,
  -0.005914,
  -0.013764,
  -0.012459,
  0.033459,
  0.012352,
  -0.010013,
  0.027315,
  0.005237,
  0.057353,
  0.003864,
  -0.018540,
  -0.007778,
  -0.024959,
  -0.047784,
  0.026603,
  0.040585,
  -0.017877,
  -0.008143,
  -0.026773,
  -0.018783,
  0.029218,
  -0.032113,
  0.011271,
  0.004697,
  0.041322,
  -0.032749,
  0.006822,
  0.010935,
  -0.066602,
  -0.007584,
  -0.036093,
  -0.012607,
  -0.058461,
  0.002534,
  0.041379,
  0.008913,
  0.004360,
  0.011548,
  0.001362,
  0.002680,
  -0.005080,
  0.011291,
  0.032511,
  0.034676,
  -0.025750,
  -0.038385,
  0.003190,
  -0.016772,
  -0.015504,
  -0.023757,
  -0.036951,
  0.011797,
  0.020440,
  -0.015823,
  0.006271,
  0.004294,
  0.002400,
  0.004116,
  0.020724,
  -0.032570,
  0.054460,
  -0.012720,
  -0.000999,
  -0.058161,
  0.028011,
  -0.018312,
  0.017968,
  0.012658,
  -0.012318,
  -0.030707,
  0.032307,
  0.048560,
  0.000700,
  0.080215,
  -0.021889,
  -0.008972,
  -0.008038,
  -0.010749,
  -0.008819,
  0.019591,
  0.030777,
  -0.019253,
  0.011680,
  0.014100,
  -0.047563,
  -0.017857,
  -0.025569,
  -0.005614,
  0.055228,
  0.012544,
  0.030811,
  -0.011338,
  0.013383,
  0.012008,
  -0.026576,
  -0.032063,
  -0.037991,
  0.001348,
  0.042833,
  0.048989,
  0.020129,
  -0.031662,
  -0.027744,
  0.007100,
  -0.036977,
  -0.033103,
  -0.021153,
  0.059873,
  -0.029912,
  0.056081,
  0.112770,
  0.035349,
  0.037714,
  -0.000491,
  -0.002742,
  0.036372,
  -0.033322,
  -0.035929,
  0.012031,
  -0.018118,
  -0.036668,
  -0.061153,
  -0.007648,
  -0.015496,
  0.018769,
  0.004630,
  -0.034169,
  0.026075,
  0.031027,
  0.050272,
  0.027572,
  0.006988,
  0.026033,
  0.020720,
  0.007981,
  -0.010791,
  0.042131,
  0.013914,
  -0.016427,
  -0.036319,
  -0.008897,
  0.026450,
  -0.040269,
  -0.054734,
  0.038009,
  0.028155,
  0.028078,
  0.025979,
  -0.023744,
  0.077188,
  0.048724,
  0.021889,
  -0.065322,
  -0.002362,
  0.013620,
  0.016638,
  -0.031320,
  -0.076267,
  -0.003742,
  0.004230,
  0.012692,
  0.001979,
  -0.004854,
  0.025775,
  0.051114,
  0.017007,
  0.007261,
  -0.076156,
  -0.034773,
  0.003753,
  0.040990,
  -0.022141,
  0.012331,
  0.017349,
  0.000526,
  0.022546,
  0.028948,
  0.014592,
  0.008856,
  -0.065969,
  -0.051291,
  -0.036295,
  0.044624,
  -0.022130,
  -0.037937,
  0.002248,
  0.001476,
  -0.024506,
  0.039677,
  0.016053,
  0.020087,
  0.004370,
  -0.002116,
  -0.002465,
  -0.022158,
  -0.002262,
  0.012023,
  0.002751,
  -0.005774,
  0.060840,
  -0.007362,
  0.053100,
  -0.004172,
  0.019501,
  -0.043676,
  0.027442,
  0.041674,
  0.015279,
  -0.008154,
  0.038680,
  0.001642,
  -0.007509,
  -0.023676,
  0.018003,
  -0.004903,
  -0.041724,
  0.013508,
  -0.014564,
  -0.028115,
  0.024499,
  -0.002971,
  0.002967,
  0.009042,
  0.022044,
  -0.035509,
  0.010226,
  -0.054019,
  -0.062506,
  -0.049025,
  -0.028096,
  -0.012941,
  0.014894,
  -0.033038,
  -0.009408,
  0.001653,
  -0.024662,
  0.033100,
  0.008935,
  -0.029401,
  0.020622,
  0.021086,
  -0.010243,
  -0.037102,
  0.010471,
  0.044271,
  0.036142,
  0.027126,
  0.081744,
  -0.008999,
  0.027697,
  -0.010653,
  0.029594,
  0.025150,
  -0.004807,
  0.038281,
  -0.018303,
  0.055637,
  0.057560,
  -0.030805,
  0.006531,
  0.023944,
  -0.052561,
  -0.015555,
  0.017501,
  0.000978,
  -0.016689,
  0.003930,
  -0.016714,
  0.018438,
  -0.001086,
  0.050081,
  -0.031031,
  0.020812,
  -0.016119,
  0.024826,
  0.018522,
  -0.057582,
  -0.015314,
  -0.006384,
  -0.037093,
  -0.042148,
  -0.011409,
  0.047703,
  -0.057944,
  -0.000810,
  -0.037527,
  -0.004637,
  -0.041675,
  -0.013487,
  -0.048255,
  -0.041887,
  0.025991,
  -0.013322,
  -0.038197,
  0.041000,
  0.024119,
  0.036920,
  0.019672,
  0.044555,
  -0.018465,
  -0.021545,
  0.017426,
  0.006713,
  0.003889,
  -0.049612,
  0.046787,
  -0.003671,
  -0.015110,
  -0.022954,
  -0.004766,
  0.024023,
  -0.013663,
  0.039692,
  0.011348,
  0.001656,
  0.015557,
  0.038576,
  0.073167,
  -0.007692,
  -0.027128,
  -0.012440,
  -0.031576,
  0.018993,
  0.062322,
  -0.036632,
  -0.033947,
  0.023511,
  -0.025394,
  -0.035516,
  -0.029786,
  0.033354,
  -0.028338,
  0.064196,
  -0.048905,
  -0.045742,
  -0.000575,
  0.010413,
  0.016409,
  0.010641,
  0.043375,
  0.037220,
  -0.025947,
  -0.071326,
  -0.011961,
  0.035159,
  0.043186,
  -0.006289,
  -0.042077,
  0.026855,
  0.072810,
  -0.030907,
  0.017874,
  -0.025067,
  0.049328,
  0.029768,
  -0.018509,
  -0.012890,
  -0.050491,
  0.010024,
  -0.051997,
  0.031057,
  0.031525,
  -0.043379,
  0.017498,
  0.027414,
  -0.008871,
  -0.025965,
  -0.017908,
  -0.053053,
  -0.003152,
  0.030328,
  0.008723,
  -0.034688,
  0.052827,
  0.037397,
  -0.011387,
  -0.006976,
  -0.004163,
  -0.049208,
  -0.000259,
  -0.018685,
  -0.006771,
  0.001514,
  0.060672,
  0.007538,
  -0.017857,
  -0.067482,
  0.033100,
  0.000583,
  -0.031324,
  0.036336,
  -0.005003,
  0.008284,
  -0.052083,
  -0.038260,
  0.009412,
  0.016411,
  0.022509,
  -0.028271,
  -0.022527,
  0.013893,
  0.023311,
  -0.036041,
  0.023295,
  0.006721,
  0.001215,
  0.010565,
  -0.003556,
  -0.019529,
  -0.023479,
  0.066299,
  0.018190,
  0.056523,
  0.008773,
  -0.046169,
  -0.016814,
  -0.017052,
  0.015718,
  -0.011928,
  0.000508,
  0.072123,
  -0.037806,
  -0.001615,
  -0.005379,
  0.057478,
  0.000908,
  0.005346,
  -0.018560,
  0.004304,
  0.009473,
  0.031491,
  -0.043763,
  -0.003309,
  -0.013041,
  0.030981,
  0.025689,
  -0.073220,
  -0.029168,
  0.044029,
  0.014730,
  0.007216,
  -0.024225,
  0.012659,
  -0.034766,
  -0.004075,
  0.034606,
  0.013634,
  -0.042966,
  -0.032363,
  -0.016405,
  0.031351,
  0.028443,
  0.002554,
  0.020094,
  0.023249,
  0.067506,
  0.029484,
  -0.002133,
  0.007106,
  -0.020852,
  -0.037057,
  0.025289,
  0.022578,
  -0.022287,
  0.030257,
  -0.065761,
  0.000308,
  0.028465,
  -0.000580,
  0.038783,
  -0.029254,
  0.043332,
  -0.000265,
  0.000542,
  -0.001672,
  0.020132,
  -0.037963,
  -0.000386,
  -0.037160,
  -0.018807,
  -0.028257,
  0.070510,
  0.024428,
  0.055555,
  -0.024300,
  -0.002815,
  0.052096,
  -0.016413,
  0.024381,
  0.017719,
  -0.000543,
  -0.046536,
  0.055646,
  0.017977,
  0.020653,
  -0.007021,
  0.024530,
  -0.001954,
  -0.019212,
  -0.011081,
  -0.001137,
  -0.061285,
  -0.018750,
  -0.006421,
  0.025572,
  0.019916,
  -0.016095,
  -0.029026,
  0.020561,
  0.008996,
  -0.069929,
  0.031415,
  0.009197,
  -0.016765,
  0.011186,
  -0.019710,
  -0.008253,
  -0.001442,
  -0.010277,
  0.009351,
  -0.001255,
  0.027716,
  0.009076,
  0.051194,
  -0.003224,
  -0.017983,
  0.006939,
  0.025165,
  0.029301,
  0.001818,
  0.018110,
  -0.014396,
  0.016538,
  -0.005050,
  -0.024167,
  -0.021388,
  -0.009547,
  0.041609,
  0.022689,
  0.091817,
  -0.018384,
  0.002725,
  -0.001673,
  -0.001863,
  0.012491,
  -0.029891,
  -0.004335,
  -0.055841,
  -0.012266,
  0.072272,
  -0.003033,
  0.029948,
  -0.031829,
  -0.078436,
  -0.027465,
  -0.029781,
  -0.008090,
  -0.046139,
  -0.019919,
  -0.015263,
  0.005545,
  -0.051899,
  -0.029670,
  0.075355,
  -0.057532,
  -0.010035,
  0.015441,
  0.033616,
  0.031284,
  -0.005259,
  -0.027245,
  0.045750,
  0.037599,
  0.017881,
  -0.005203,
  0.004728,
  -0.020800,
  -0.040333,
  0.010043,
  -0.039892,
  0.022048,
  0.066542,
  0.012236,
  0.017448,
  0.042375,
  0.010076,
  -0.039143,
  0.017084,
  0.026878,
  0.035498,
  -0.008245,
  0.003668,
  -0.060600,
  -0.050115,
  0.016029,
  -0.075401,
  -0.079507,
  -0.034691,
  0.017366,
  0.014734,
  -0.016327,
  -0.025354,
  0.060844,
  -0.001260,
  -0.005842,
  -0.039711,
  -0.025646,
  0.058689,
  0.005606,
  0.039049,
  0.066812,
  -0.024187,
  -0.026821,
  -0.069075,
  0.037737,
  -0.011290,
  -0.019491,
  -0.002583,
  -0.013409,
  0.004952,
  0.015866,
  -0.015665,
  0.002651,
  0.048248,
  0.012480,
  -0.020063,
  0.021897,
  0.029590,
  0.011508,
  0.004084,
  0.019184,
  0.036439,
  -0.001921,
  0.005427,
  0.002349,
  0.002000,
  0.035129,
  -0.054790,
  0.045003,
  0.036868,
  0.055914,
  0.015130,
  -0.052980,
  -0.005153,
  0.013625,
  -0.029237,
  -0.000322,
  -0.010608,
  -0.006438,
  0.067046,
  -0.033799,
  -0.017293,
  -0.027812,
  -0.017384,
  0.017830,
  0.030337,
  -0.013127,
  -0.008614,
  -0.063010,
  0.055084,
  0.025030,
  -0.015056,
  -0.038488,
  0.013292,
  0.004283,
  0.053733,
  -0.019210,
  0.039972,
  -0.008503,
  0.013008,
  -0.018520,
  0.007129,
  -0.006627,
  -0.040092,
  0.020465,
  0.036635,
  -0.011364,
  -0.040760,
  -0.048271,
  -0.020980,
  -0.025348,
  0.022225,
  -0.002497,
  0.010192,
  -0.006919,
  0.005841,
  -0.004486,
  -0.020790,
  -0.011435,
  0.008191,
  0.022104,
  0.003347,
  0.000786,
  0.024184,
  0.060654,
  0.003217,
  -0.040436,
  -0.020562,
  -0.010695,
  0.000555,
  -0.002819,
  -0.057999,
  -0.020691,
  0.014235,
  -0.043882,
  -0.012395,
  -0.049535,
  0.020201,
  -0.035491,
  0.048702,
  -0.007662,
  -0.058896,
  -0.001198,
  0.032348,
  -0.056284,
  -0.038356,
  0.008929,
  0.026311,
  -0.035182,
  0.053389,
  -0.003594,
  -0.042089,
  0.006914,
  0.023839,
  -0.016404,
  0.009656,
  -0.018855,
  0.033542,
  0.010533,
  0.048831,
  0.015699,
  -0.003643,
  0.057634,
  0.026761,
  0.022810,
  0.009037,
  0.016348,
  -0.033671,
  -0.046124,
  -0.024341,
  0.072004,
  -0.000497,
  -0.024337,
  -0.044183,
  0.021914,
  0.032807,
  -0.060641,
  0.013436,
  -0.012443,
  -0.012132,
  -0.030291,
  0.021846,
  0.023452,
  -0.025318,
  -0.023373,
  0.002727,
  0.027188,
  0.027992,
  -0.005500,
  0.021386,
  -0.039992,
  0.012082,
  0.001377,
  0.019401,
  0.032212,
  0.041450,
  0.011093,
  0.014552,
  0.010817,
  -0.048776,
  -0.009812,
  -0.026997,
  -0.017840,
  0.012879,
  -0.008608,
  -0.007545,
  0.021095,
  0.016213,
  0.016102,
  -0.058720,
  0.065953,
  -0.027092,
  0.007201,
  0.038871,
  0.032978,
  -0.039131,
  -0.023619,
  0.008502,
  0.046067,
  -0.021589,
  0.045536,
  -0.052271,
  -0.005309,
  -0.009195,
  0.012258,
  0.020206,
  -0.042879,
  0.010054,
  0.041942,
  -0.025594,
  -0.073303,
  -0.005341,
  -0.034894,
  -0.024206,
  -0.052044,
  0.051685,
  0.035096,
  0.037340,
  -0.038493,
  0.032338,
  -0.019549,
  -0.078429,
  0.017656,
  0.049815,
  -0.017088,
  -0.028996,
  0.000400,
  -0.027178,
  -0.066032,
  0.012662,
  0.000443,
  0.024315,
  -0.011244,
  -0.009765,
  -0.026671,
  -0.021768,
  -0.016202,
  -0.040413,
  0.003196,
  -0.023368,
  -0.056980,
  -0.017109,
  0.045417,
  0.043375,
  -0.004847,
  0.021793,
  0.021883,
  0.010616,
  -0.004001,
  -0.008256,
  -0.001629,
  -0.017801,
  -0.052159,
  -0.044197,
  -0.037229,
  0.000794,
  -0.000773,
  -0.023583,
  0.055481,
  0.031026,
  -0.013725,
  0.002004,
  -0.014981,
  -0.027066,
  -0.023830,
  0.017950,
  0.019327,
  0.021275,
  -0.005771,
  0.024595,
  0.028537,
  0.012397,
  0.022690,
  0.023429,
  -0.010198,
  0.005445,
  -0.044052,
  -0.012088,
  0.021234,
  0.008592,
  -0.000321,
  -0.013159,
  0.037250,
  -0.048550,
  0.007352,
  -0.016721,
  0.056631,
  0.034337,
  -0.018010,
  0.013076,
  -0.008785,
  0.058591,
  -0.024299,
  0.045677,
  -0.001597,
  -0.017151,
  0.000260,
  0.012888,
  -0.028593,
  0.033225,
  -0.014487,
  -0.047097,
  0.032061,
  0.024311,
  -0.000211,
  0.021783,
  -0.043373,
  0.000991,
  0.060618,
  0.048987,
  -0.017798,
  -0.004798,
  0.017129,
  -0.055330,
  0.026355,
  0.041508,
  0.020807,
  -0.026903,
  -0.053345,
  -0.004695,
  0.047256,
  0.012733,
  0.011991,
  -0.002366,
  0.015365,
  -0.047305,
  -0.024690,
  -0.002717,
  -0.047641,
  -0.040682,
  0.020149,
  -0.028247,
  -0.047876,
  0.053063,
  0.044712,
  0.011150,
  -0.000144,
  -0.002046,
  0.024558,
  0.020295,
  -0.004865,
  0.014711,
  0.023703,
  -0.031983,
  -0.015432,
  -0.015939,
  -0.000304,
  0.003534,
  0.016003,
  -0.010036,
  0.006277,
  -0.026602,
  -0.042168,
  0.006027,
  0.018797,
  0.019118,
  -0.053769,
  -0.068933,
  0.036044,
  -0.004099,
  0.010867,
  -0.014221,
  -0.002527,
  -0.014529,
  -0.031227,
  -0.037892,
  -0.037000,
  0.049139,
  -0.002908,
  0.004704,
  0.029715,
  0.017337,
  0.028483,
  -0.032615,
  0.080329,
  0.017513,
  0.061526,
  -0.042897,
  -0.025865,
  0.041263,
  0.014855,
  -0.037630,
  0.016794,
  0.030529,
  -0.013834,
  -0.015877,
  0.011111,
  -0.014897,
  0.058650,
  -0.043462,
  -0.009207,
  -0.033408,
  -0.015742,
  0.029966,
  0.019327,
  0.029569,
  0.077900,
  0.040083,
  -0.042632,
  -0.058852,
  0.021360,
  -0.019207,
  -0.061218,
  0.005243,
  0.013463,
  0.024947,
  -0.058508,
  0.043486,
  0.021264,
  0.050575,
  0.002822,
  -0.015138,
  -0.017238,
  -0.037318,
  0.007132,
  0.028313,
  -0.050592,
  -0.008466,
  -0.031531,
  0.021324,
  -0.017909,
  0.063325,
  0.015255,
  0.053493,
  0.009308,
  0.038218,
  -0.002146,
  0.031690,
  -0.018870,
  -0.009923,
  0.032164,
  0.030104,
  0.023777,
  -0.011723,
  -0.019321,
  -0.036155,
  0.006374,
  -0.005075,
  -0.003573,
  0.001909,
  0.042392,
  0.002532,
  -0.061366,
  -0.055196,
  0.004048,
  0.022413,
  0.000726,
  -0.022235,
  -0.020480,
  -0.005941,
  -0.054115,
  -0.051854,
  -0.022190,
  0.020637,
  -0.016692,
  -0.017174,
  0.008636,
  0.021225,
  0.003746,
  0.019001,
  0.025317,
  0.052377,
  0.014662,
  0.003191,
  -0.054683,
  -0.003054,
  0.010651,
  -0.013341,
  -0.029960,
  0.011812,
  0.042179,
  0.024547,
  0.027995,
  -0.045713,
  -0.039559,
  -0.003785,
  -0.027939,
  -0.035657,
  0.017885,
  0.044293,
  0.017271,
  -0.018191,
  -0.029490,
  -0.028291,
  -0.014205,
  -0.045346,
  0.019452,
  -0.020272,
  -0.088512,
  0.007830,
  0.067515,
  0.024390,
  0.039048,
  0.040321,
  0.036814,
  -0.087242,
  0.002628,
  0.013759,
  0.027690,
  0.035034,
  0.039651,
  -0.037285,
  -0.002032,
  -0.013764,
  -0.020947,
  0.027688,
  0.038937,
  -0.018095,
  -0.008104,
  -0.028837,
  0.052278,
  -0.000368,
  0.005634,
  0.027627,
  -0.048362,
  0.007287,
  0.034917,
  0.029912,
  0.013330,
  -0.046110,
  0.042924,
  0.041884,
  -0.069792,
  -0.039845,
  -0.014576,
  -0.053135,
  -0.031645,
  0.046565,
  -0.013860,
  -0.067149,
  -0.020149,
  -0.002016,
  -0.029268,
  -0.018519,
  -0.050367,
  0.045324,
  0.030309,
  0.006280,
  0.029507,
  0.006097,
  -0.006232,
  0.015654,
  0.004860,
  0.005117,
  0.005111,
  0.018282,
  -0.024283,
  -0.013666,
  -0.001759,
  0.001483,
  -0.048592,
  -0.001879,
  0.028354,
  -0.039055,
  -0.005554,
  0.008725,
  0.014747,
  0.001792,
  -0.026386,
  -0.031475,
  -0.022221,
  -0.005298,
  -0.036546,
  0.022168,
  0.057183,
  0.013833,
  0.010418,
  -0.035093,
  0.013429,
  -0.050476,
  0.017596,
  0.043599,
  -0.006839,
  0.000672,
  0.046337,
  0.010054,
  0.023115,
  -0.036541,
  -0.040671,
  0.040607,
  -0.027816,
  0.004374,
  -0.032215,
  0.003949,
  0.040673,
  -0.053947,
  0.006683,
  -0.024625,
  0.033005,
  -0.000329,
  -0.000515,
  0.019056,
  -0.027114,
  -0.026648,
  -0.066862,
  0.015276,
  -0.007616,
  0.007640,
  0.055950,
  0.023244,
  -0.006413,
  -0.026466,
  0.005499,
  0.009045,
  -0.015031,
  -0.030436,
  -0.071056,
  0.007219,
  0.014979,
  -0.024340,
  -0.024244,
  0.014355,
  0.038271,
  0.057927,
  -0.102464,
  -0.009623,
  0.013272,
  -0.017708,
  0.064563,
  -0.000117,
  -0.017216,
  0.026796,
  -0.043650,
  -0.075302,
  0.003474,
  -0.008251,
  0.016773,
  -0.004811,
  -0.062264,
  -0.019955,
  0.011108,
  0.023750,
  -0.002513,
  -0.019386,
  0.038627,
  -0.008063,
  0.007546,
  -0.014352,
  -0.007512,
  0.019984,
  0.004279,
  -0.004486,
  0.038383,
  0.003320,
  0.024175,
  -0.006875,
  0.045411,
  0.002673,
  0.020254,
  -0.039678,
  0.008606,
  -0.011819,
  -0.023240,
  0.003951,
  0.063296,
  -0.024446,
  0.010172,
  0.010663,
  0.008454,
  -0.027633,
  -0.028170,
  0.031921,
  -0.017392,
  -0.004883,
  0.007970,
  -0.059407,
  -0.040110,
  0.022030,
  0.020017,
  0.005129,
  0.020730,
  -0.018510,
  0.018345,
  0.039616,
  -0.042068,
  0.040816,
  0.002827,
  0.023556,
  -0.024396,
  0.015905,
  -0.045504,
  0.027330,
  -0.002537,
  0.017731,
  0.025899,
  0.040508,
  -0.061488,
  -0.001536,
  0.046113,
  0.037919,
  0.048436,
  0.004658,
  -0.052405,
  -0.002631,
  -0.007785,
  0.000906,
  -0.005174,
  0.013655,
  0.082707,
  0.036744,
  0.061736,
  -0.067508,
  0.008478,
  0.015446,
  -0.025091,
  -0.011973,
  0.005698,
  0.043091,
  0.004396,
  0.041272,
  0.008060,
  -0.021055,
  0.030185,
  0.027328,
  -0.007317,
  -0.054280,
  -0.011294,
  0.070307,
  -0.031286,
  -0.015969,
  -0.013790,
  0.038873,
  0.021929,
  0.007527,
  0.012125,
  -0.010195,
  0.015920,
  0.012384,
  0.061362,
  -0.059304,
  0.024101,
  0.005057,
  -0.032561,
  -0.056411,
  0.001907,
  -0.028050,
  0.045456,
  -0.042001,
  -0.002143,
  -0.005268,
  0.031652,
  0.022320,
  0.055811,
  0.006885,
  0.038655,
  0.046897,
  0.003146,
  -0.001009,
  -0.007786,
  0.000708,
  0.033736,
  -0.033978,
  0.032662,
  -0.010593,
  0.034340,
  -0.020732,
  0.016305,
  -0.030903,
  -0.023689,
  -0.030230,
  0.054692,
  -0.016513,
  0.008792,
  -0.042738,
  0.010971,
  0.033829,
  0.010481,
  -0.052222,
  -0.009183,
  0.031299,
  -0.009523,
  0.047057,
  -0.042193,
  0.017787,
  -0.003332,
  -0.024666,
  -0.039807,
  -0.011354,
  -0.005865,
  0.028692,
  0.012711,
  -0.056598,
  0.009041,
  -0.066209,
  -0.031166,
  -0.043015,
  0.010137,
  -0.013337,
  -0.033185,
  -0.000053,
  -0.019674,
  -0.035967,
  -0.028893,
  -0.019690,
  0.017579,
  -0.007804,
  0.043589,
  0.012553,
  -0.021508,
  -0.002877,
  -0.052200,
  -0.047657,
  -0.021737,
  -0.053211,
  0.003741,
  0.010343,
  0.022452,
  -0.001995,
  -0.014902,
  -0.016660,
  -0.016051,
  -0.004517,
  0.032694,
  0.011987,
  0.026171,
  0.022195,
  -0.037373,
  -0.008475,
  -0.011063,
  0.011171,
  -0.020544,
  -0.004670,
  -0.004569,
  -0.029089,
  0.033306,
  0.007428,
  0.000592,
  -0.008217,
  0.008777,
  0.010439,
  -0.015968,
  -0.011749,
  0.074447,
  -0.003352,
  0.030152,
  -0.036431,
  -0.003185,
  0.030396,
  -0.061427,
  0.056964,
  -0.001811,
  0.020371,
  -0.005445,
  -0.007964,
  -0.014781,
  0.002199,
  -0.045999,
  0.032144,
  -0.031839,
  -0.061795,
  0.028261,
  0.011724,
  -0.043457,
  0.009986,
  -0.037435,
  -0.023012,
  0.029068,
  0.025059,
  -0.025205,
  0.005411,
  0.056452,
  0.034909,
  -0.002501,
  -0.010870,
  -0.021946,
  0.053016,
  -0.034785,
  -0.010688,
  0.064408,
  0.019617,
  -0.034117,
  -0.045143,
  0.023340,
  -0.019956,
  -0.015245,
  -0.019195,
  -0.021556,
  0.001592,
  -0.014027,
  0.038683,
  0.060242,
  0.008917,
  0.018121,
  0.025043,
  0.026630,
  0.006911,
  -0.007983,
  -0.024772,
  0.014982,
  0.070246,
  0.029946,
  0.011062,
  0.023899,
  -0.033821,
  -0.017949,
  -0.038019,
  0.012124,
  -0.029266,
  -0.005275,
  -0.012373,
  0.018067,
  0.014691,
  0.020955,
  0.026662,
  0.006094,
  0.053033,
  0.015537,
  -0.001851,
  0.047843,
  -0.051373,
  0.012323,
  -0.003257,
  0.077904,
  -0.018788,
  0.022989,
  0.056147,
  -0.080320,
  -0.003695,
  0.012976,
  0.038581,
  0.016945,
  0.050903,
  -0.055927,
  0.005499,
  -0.036052,
  0.020323,
  0.001433,
  -0.015322,
  0.007156,
  0.016486,
  -0.019961,
  -0.023247,
  -0.009459,
  0.027862,
  -0.034688,
  -0.005088,
  -0.025553,
  -0.011388,
  0.006331,
  0.009009,
  0.021474,
  0.008620,
  0.024713,
  0.039197,
  -0.010285,
  0.054645,
  0.034917,
  -0.042916,
  -0.038514,
  -0.028738,
  0.059443,
  -0.017110,
  -0.024012,
  0.019922,
  -0.004913,
  0.001195,
  0.045084,
  -0.016387,
  -0.019473,
  -0.014645,
  0.025192,
  0.043718,
  0.000412,
  0.033322,
  -0.024532,
  -0.016195,
  0.032498,
  -0.015730,
  -0.008524,
  0.001254,
  -0.001619,
  -0.028456,
  -0.018413,
  0.063181,
  0.065795,
  0.042260,
  0.027874,
  -0.001187,
  0.039016,
  -0.019221,
  -0.039570,
  -0.006335,
  0.040391,
  0.014605,
  -0.016542,
  0.001322,
  0.021322,
  -0.005699,
  -0.047409,
  0.004132,
  -0.024652,
  -0.022435,
  0.025295,
  -0.059900,
  -0.037542,
  0.065639,
  -0.017150,
  0.005036,
  -0.033395,
  0.004127,
  0.008331,
  0.065282,
  -0.023716,
  -0.024120,
  0.046247,
  0.003806,
  -0.045864,
  -0.019502,
  -0.009339,
  0.014876,
  -0.028126,
  0.070265,
  0.005316,
  0.023233,
  0.020036,
  0.000072,
  -0.074418,
  -0.000166,
  0.013514,
  -0.023748,
  -0.011635,
  -0.005310,
  0.006974,
  0.067807,
  -0.055079,
  -0.009132,
  -0.009780,
  -0.030640,
  -0.034540,
  -0.037071,
  -0.005092,
  0.027354,
  -0.064930,
  -0.040452,
  -0.018278,
  0.008310,
  0.030648,
  -0.022762,
  -0.028669,
  -0.017711,
  0.017370,
  0.008873,
  -0.009441,
  0.012237,
  -0.032271,
  -0.028617,
  0.054439,
  -0.016306,
  -0.039055,
  -0.055422,
  -0.043177,
  -0.004293,
  -0.009530,
  -0.021111,
  -0.004194,
  0.001371,
  -0.032717,
  -0.001939,
  -0.012535,
  0.004816,
  -0.002543,
  0.023895,
  0.042991,
  0.016224,
  -0.032289,
  0.021603,
  -0.054246,
  -0.015387,
  -0.025198,
  -0.016651,
  -0.021182,
  0.020316,
  -0.018271,
  -0.008448,
  0.004482,
  0.067939,
  -0.024751,
  -0.011695,
  -0.017070,
  0.016599,
  -0.002006,
  0.025981,
  -0.046945,
  0.019010,
  -0.055883,
  -0.028030,
  -0.003503,
  0.023602,
  0.037243,
  -0.002934,
  0.025809,
  -0.002786,
  -0.026746,
  0.005375,
  0.005848,
  -0.006099,
  -0.004845,
  -0.016756,
  -0.002836,
  -0.030670,
  -0.013221,
  -0.001768,
  0.026806,
  0.042097,
  -0.004033,
  -0.006399,
  0.049029,
  -0.030510,
  0.038398,
  0.039788,
  0.019247,
  0.002030,
  -0.024745,
  -0.038970,
  -0.009128,
  -0.004334,
  -0.018959,
  -0.030121,
  -0.024716,
  0.002685,
  -0.024982,
  -0.031305,
  -0.030408,
  -0.016077,
  0.008659,
  -0.032799,
  -0.019810,
  -0.027630,
  0.036524,
  0.000960,
  -0.009894,
  0.044676,
  0.014301,
  0.043219,
  0.015459,
  -0.005268,
  0.008253,
  0.001656,
  -0.021477,
  0.046350,
  0.025745,
  -0.042496,
  0.020887,
  -0.017837,
  0.048045,
  0.029066,
  0.037789,
  -0.001384,
  0.015745,
  0.020123,
  -0.001615,
  0.005217,
  -0.036890,
  0.000238,
  -0.040276,
  0.020348,
  -0.019666,
  0.036441,
  -0.033783,
  0.022603,
  -0.022921,
  -0.041763,
  -0.010733,
  0.039115,
  -0.031562,
  0.049699,
  -0.020972,
  -0.030952,
  -0.050342,
  -0.013221,
  -0.044336,
  -0.029370,
  -0.055306,
  0.026373,
  0.006699,
  0.035468,
  0.016039,
  -0.022358,
  -0.032043,
  -0.031399,
  -0.002892,
  0.018167,
  0.009286,
  -0.016509,
  0.001005,
  -0.047528,
  -0.026081,
  0.071558,
  0.007809,
  0.003280,
  -0.063243,
  0.040258,
  -0.030307,
  -0.026351,
  -0.029572,
  -0.006217,
  0.002755,
  -0.015764,
  0.003547,
  0.001380,
  0.001148,
  0.005757,
  0.045649,
  -0.015942,
  0.032243,
  0.028921,
  -0.022444,
  -0.005365,
  0.076838,
  -0.001252,
  -0.016793,
  0.012878,
  0.000272,
  -0.012223,
  0.008157,
  -0.013131,
  0.014099,
  -0.059438,
  -0.038736,
  0.013347,
  0.031241,
  -0.011682,
  -0.010505,
  0.030206,
  -0.021351,
  -0.031408,
  -0.078387,
  0.001615,
  0.035914,
  -0.020758,
  0.000929,
  -0.056271,
  -0.008387,
  -0.004110,
  0.009015,
  0.057020,
  -0.061422,
  0.026667,
  -0.015467,
  -0.016777,
  0.049938,
  -0.052624,
  -0.035432,
  0.041719,
  -0.011401,
  -0.000246,
  -0.005800,
  -0.016768,
  -0.009050,
  -0.031938,
  -0.002494,
  -0.025142,
  -0.012994,
  0.046344,
  -0.064211,
  -0.026841,
  -0.005638,
  -0.021162,
  0.027838,
  -0.038819,
  -0.040586,
  0.033992,
  0.005166,
  -0.024530,
  0.006527,
  -0.019480,
  0.013076,
  -0.000378,
  -0.005493,
  0.022478,
  0.035568,
  -0.011280,
  0.011350,
  -0.014993,
  -0.053850,
  0.023019,
  -0.063152,
  -0.016400,
  -0.052824,
  0.022758,
  0.023165,
  -0.007490,
  0.016105,
  0.019659,
  -0.003954,
  -0.018320,
  0.023654,
  -0.003705,
  0.062771,
  0.014055,
  0.027324,
  0.019014,
  0.022728,
  0.037543,
  -0.006227,
  0.052383,
  0.014249,
  0.018831,
  -0.060498,
  -0.002569,
  -0.018472,
  -0.012981,
  0.011713,
  0.010781,
  0.015531,
  0.020911,
  0.027156,
  -0.059403,
  0.048061,
  -0.010539,
  0.017485,
  0.046579,
  -0.006896,
  0.023376,
  -0.002282,
  -0.048825,
  -0.077217,
  -0.000095,
  0.011385,
  -0.028156,
  -0.002428,
  0.023377,
  0.011853,
  -0.010040,
  -0.038488,
  -0.024063,
  -0.004507,
  -0.018862,
  -0.032727,
  0.037096,
  0.035108,
  -0.004633,
  0.041995,
  -0.029205,
  -0.060281,
  -0.070156,
  0.049442,
  -0.020154,
  0.026416,
  0.025492,
  0.013754,
  -0.022428,
  0.036951,
  0.002021,
  -0.014171,
  0.002185,
  0.032477,
  -0.023080,
  -0.004258,
  -0.072033,
  -0.049026,
  0.057824,
  -0.023729,
  -0.024953,
  -0.046815,
  0.022379,
  -0.042621,
  0.021451,
  -0.006628,
  0.043796,
  -0.005669,
  0.061832,
  -0.017488,
  0.037845,
  0.081263,
  0.002083,
  0.008642,
  -0.009294,
  -0.025365,
  -0.036219,
  0.047183,
  0.033975,
  0.004520,
  0.004712,
  -0.053699,
  -0.042919,
  0.053374,
  -0.007174,
  -0.045194,
  0.033509,
  -0.014262,
  -0.023488,
  0.021315,
  -0.034338,
  0.018741,
  0.006754,
  0.022504,
  -0.036571,
  -0.003666,
  0.000332,
  0.000992,
  0.019832,
  0.009155,
  -0.037251,
  0.030056,
  -0.025907,
  -0.033759,
  -0.007233,
  0.004139,
  -0.050693,
  -0.029759,
  0.017125,
  0.007790,
  -0.012672,
  0.005866,
  0.003283,
  0.008620,
  0.009080,
  -0.002055,
  0.024219,
  -0.012111,
  0.027325,
  -0.002395,
  0.040001,
  0.033093,
  -0.044805,
  -0.016694,
  -0.040894,
  -0.020983,
  0.059513,
  -0.045957,
  -0.006177,
  0.010731,
  -0.025912,
  0.011692,
  -0.014664,
  0.029846,
  0.059934,
  0.029435,
  -0.015942,
  -0.008894,
  0.027787,
  0.005094,
  0.048944,
  0.040319,
  0.094028,
  -0.008315,
  0.020059,
  0.038866,
  0.038708,
  0.029509,
  0.057402,
  0.004232,
  0.000465,
  -0.016356,
  0.040366,
  0.080508,
  -0.014899,
  -0.004834,
  0.011037,
  0.030347,
  -0.013161,
  -0.016329,
  -0.008082,
  0.023489,
  -0.000719,
  0.003775,
  0.035870,
  0.009791,
  0.002813,
  0.008203,
  -0.006663,
  0.000854,
  0.021942,
  0.001046,
  0.004960,
  -0.025334,
  0.022861,
  -0.076904,
  0.010785,
  0.028221,
  0.037045,
  -0.001168,
  0.048333,
  -0.065036,
  -0.005213,
  0.043163,
  -0.036153,
  0.038418,
  -0.007403,
  -0.001075,
  0.018469,
  0.013337,
  0.038519,
  0.028597,
  -0.045816,
  -0.013471,
  -0.033093,
  0.006113,
  0.032611,
  -0.017172,
  -0.011427,
  -0.003651,
  -0.046961,
  -0.018484,
  -0.027378,
  -0.009975,
  0.010959,
  -0.059172,
  0.008940,
  0.006010,
  -0.020195,
  -0.057377,
  0.012599,
  0.001412,
  0.039039,
  -0.042190,
  -0.022433,
  -0.049229,
  -0.009623,
  -0.003324,
  0.001756,
  -0.013948,
  -0.068609,
  -0.058867,
  -0.014751,
  -0.043871,
  0.022561,
  0.059685,
  -0.084094,
  -0.000412,
  -0.020323,
  0.029617,
  0.054882,
  -0.042493,
  0.015102,
  -0.068354,
  -0.063108,
  -0.030689,
  -0.001444,
  0.051257,
  0.073058,
  0.008025,
  0.006012,
  -0.051406,
  -0.030050,
  -0.014851,
  0.058860,
  0.008794,
  -0.058078,
  -0.009639,
  0.045272,
  0.013275,
  -0.028006,
  0.011993,
  0.001565,
  -0.015026,
  0.001898,
  -0.000995,
  -0.011724,
  0.054001,
  0.058055,
  0.003025,
  0.002686,
  -0.032553,
  -0.045268,
  0.019339,
  0.039312,
  0.006277,
  0.021991,
  0.099728,
  -0.004374,
  0.020466,
  0.087183,
  -0.026340,
  -0.015538,
  0.006327,
  -0.023802,
  -0.001048,
  0.036019,
  0.026892,
  -0.037044,
  -0.015435,
  -0.028041,
  -0.032631,
  0.048367,
  0.022607,
  0.012901,
  0.002651,
  0.015363,
  0.051198,
  0.035304,
  0.059340,
  -0.011879,
  0.002940,
  -0.022522,
  -0.005772,
  -0.007792,
  0.007683,
  0.087901,
  0.008881,
  0.002603,
  -0.010112,
  0.030962,
  0.030489,
  0.010691,
  -0.016958,
  -0.048872,
  -0.028110,
  0.001705,
  -0.023847,
  0.013750,
  -0.063545,
  -0.043452,
  0.015726,
  0.033879,
  0.015464,
  0.015523,
  0.003853,
  -0.020421,
  0.016573,
  0.029274,
  -0.021603,
  0.009112,
  0.077284,
  0.022004,
  0.008017,
  0.027440,
  -0.017307,
  0.035104,
  -0.019563,
  -0.004695,
  0.025513,
  0.013787,
  -0.004525,
  0.020769,
  0.008536,
  0.063158,
  0.046935,
  -0.000177,
  0.042598,
  0.021850,
  0.004127,
  -0.067054,
  0.050559,
  0.024482,
  0.046050,
  0.028548,
  -0.054195,
  -0.032785,
  -0.037626,
  -0.022458,
  -0.035323,
  0.029634,
  0.035118,
  0.021094,
  0.005601,
  -0.043312,
  0.011913,
  -0.006797,
  0.016458,
  -0.029208,
  -0.010299,
  -0.020862,
  -0.013547,
  0.018878,
  -0.027309,
  -0.025690,
  -0.012141,
  0.024861,
  -0.044246,
  -0.006684,
  -0.024002,
  -0.029907,
  -0.030783,
  0.005678,
  -0.043620,
  -0.005805,
  -0.059668,
  0.004381,
  0.013044,
  0.029775,
  -0.023231,
  0.040075,
  0.016625,
  -0.004733,
  -0.024302,
  -0.011586,
  0.053534,
  0.030639,
  -0.005266,
  0.017994,
  -0.013844,
  0.019492,
  -0.027651,
  -0.024927,
  0.006074,
  0.040366,
  0.014021,
  -0.060849,
  -0.048534,
  -0.017000,
  0.012179,
  -0.030185,
  -0.003386,
  -0.007095,
  0.007962,
  0.002476,
  0.029678,
  0.021180,
  -0.018594,
  0.023768,
  -0.044046,
  0.060888,
  -0.007359,
  -0.032129,
  0.005830,
  -0.010103,
  0.047253,
  -0.001055,
  0.025018,
  -0.029637,
  0.001622,
  0.009009,
  -0.016288,
  0.056358,
  0.003758,
  -0.035378,
  0.006921,
  0.025587,
  -0.034895,
  0.004920,
  0.019104,
  -0.014869,
  -0.068943,
  0.004363,
  -0.011195,
  0.010966,
  0.029961,
  -0.024397,
  0.006886,
  0.021373,
  -0.009170,
  -0.006213,
  0.034460,
  0.017054,
  0.042668,
  -0.024019,
  -0.036986,
  -0.032068,
  0.056960,
  0.012257,
  0.007941,
  0.008110,
  0.024830,
  -0.033248,
  -0.042205,
  -0.001505,
  0.024046,
  -0.003747,
  -0.003176,
  -0.003077,
  0.010875,
  0.028651,
  0.009000,
  -0.035201,
  0.040394,
  0.022725,
  0.062011,
  0.070172,
  0.053721,
  0.028627,
  0.027952,
  -0.029994,
  0.002353,
  0.000470,
  0.052711,
  0.003419,
  0.050305,
  -0.024790,
  -0.012414,
  0.001925,
  0.030123,
  0.002025,
  -0.070869,
  0.003999,
  -0.025861,
  -0.010441,
  -0.038131,
  -0.004806,
  -0.039383,
  0.016326,
  -0.024085,
  0.017696,
  0.053780,
  0.002003,
  0.008889,
  0.019083,
  0.017397,
  -0.057031,
  0.015145,
  -0.033640,
  -0.057025,
  0.021939,
  0.035033,
  0.035338,
  0.021918,
  -0.009496,
  0.005611,
  0.041536,
  0.014868,
  -0.025982,
  -0.015013,
  -0.026254,
  0.020099,
  -0.021273,
  -0.021770,
  -0.007913,
  0.012631,
  -0.049557,
  -0.009228,
  -0.027203,
  0.048495,
  0.013833,
  -0.041340,
  0.014284,
  0.018311,
  -0.027005,
  0.016105,
  0.018219,
  0.080151,
  0.010810,
  0.030783,
  -0.008164,
  -0.003267,
  -0.002788,
  0.020137,
  -0.004301,
  -0.068367,
  -0.029058,
  -0.067411,
  -0.025976,
  -0.029734,
  -0.017247,
  0.032187,
  0.035601,
  -0.015290,
  -0.014615,
  -0.017152,
  0.008254,
  0.024556,
  -0.002052,
  0.033330,
  0.012834,
  -0.022934,
  0.030556,
  -0.074052,
  0.035731,
  -0.001470,
  0.023742,
  -0.023948,
  0.012018,
  -0.041853,
  0.011841,
  -0.003774,
  0.023296,
  -0.015047,
  -0.017311,
  -0.013136,
  0.027567,
  0.002188,
  -0.009737,
  0.025856,
  0.035041,
  -0.022353,
  0.007294,
  -0.032571,
  -0.004417,
  0.062745,
  -0.034442,
  -0.012649,
  0.030493,
  0.046523,
  -0.032324,
  -0.002361,
  0.010050,
  0.024763,
  -0.033620,
  -0.009998,
  0.028113,
  0.010498,
  -0.014523,
  0.006491,
  0.044198,
  -0.024691,
  -0.026215,
  -0.003453,
  0.005689,
  -0.015774,
  -0.011659,
  -0.000927,
  0.051657,
  0.053048,
  -0.032366,
  -0.027099,
  -0.020549,
  0.000078,
  -0.023277,
  0.006121,
  0.014202,
  -0.038848,
  0.033179,
  -0.046965,
  0.024054,
  -0.044472,
  0.000192,
  0.018120,
  -0.027268,
  -0.011480,
  -0.014295,
  0.008639,
  -0.049074,
  0.034447,
  0.053717,
  -0.033100,
  0.018506,
  0.004357,
  -0.010162,
  0.025045,
  0.002212,
  -0.018611,
  0.004204,
  0.033178,
  -0.021500,
  0.009243,
  -0.047425,
  0.031373,
  -0.045280,
  0.044972,
  -0.021776,
  0.056541,
  -0.027614,
  0.019601,
  -0.041473,
  0.052174,
  -0.011093,
  -0.035862,
  0.009433,
  -0.026755,
  0.005527,
  -0.042032,
  -0.014856,
  0.030950,
  0.008561,
  0.017968,
  -0.024026,
  0.063330,
  -0.013806,
  -0.007134,
  -0.002497,
  -0.024650,
  -0.060696,
  0.018588,
  0.014358,
  0.036649,
  0.013229,
  -0.028239,
  0.001993,
  0.030763,
  0.007035,
  0.005492,
  -0.047010,
  0.001096,
  -0.021810,
  0.004432,
  -0.055738,
  0.010308,
  0.010691,
  0.012749,
  0.012773,
  0.048503,
  -0.027664,
  0.041060,
  -0.063107,
  -0.012421,
  -0.038435,
  0.031906,
  0.015127,
  0.008402,
  0.009603,
  0.014868,
  -0.051291,
  -0.000660,
  -0.029263,
  -0.010654,
  -0.047085,
  -0.002616,
  -0.024780,
  -0.004614,
  0.008946,
  -0.016798,
  0.004219,
  0.021863,
  0.016634,
  0.040343,
  0.014068,
  -0.054230,
  -0.039350,
  -0.026497,
  -0.011774,
  -0.062311,
  0.097207,
  0.007545,
  -0.026704,
  0.034890,
  -0.004393,
  0.004194,
  0.006023,
  0.009933,
  0.002937,
  0.001008,
  0.025073,
  0.013796,
  -0.010218,
  0.029076,
  0.046717,
  0.002501,
  -0.063806,
  0.003888,
  0.053901,
  -0.076001,
  0.017239,
  -0.015566,
  -0.011309,
  -0.004646,
  -0.016065,
  -0.006717,
  0.014174,
  0.041543,
  -0.007517,
  -0.031391,
  -0.047524,
  -0.000623,
  -0.063327,
  0.001082,
  -0.022010,
  0.017666,
  0.034722,
  0.030556,
  -0.043819,
  -0.056878,
  0.018854,
  -0.022233,
  -0.046185,
  0.016614,
  0.000312,
  -0.022008,
  0.020546,
  0.009364,
  -0.003880,
  0.002416,
  -0.022527,
  0.024743,
  -0.021609,
  -0.091285,
  -0.021433,
  0.044271,
  -0.001821,
  -0.046012,
  -0.011106,
  -0.012098,
  -0.016822,
  0.003185,
  0.014049,
  0.082644,
  -0.032057,
  0.008972,
  0.044162,
  -0.027634,
  0.009956,
  0.010953,
  -0.022910,
  0.007419,
  0.003833,
  0.043528,
  -0.058635,
  -0.015091,
  0.021638,
  -0.057027,
  -0.017281,
  0.000079,
  -0.020940,
  0.006137,
  -0.007166,
  -0.046257,
  -0.034785,
  -0.024016,
  0.005670,
  0.042685,
  0.000759,
  -0.055055,
  0.018791,
  -0.009804,
  -0.024999,
  0.013219,
  -0.006765,
  0.014190,
  0.038214,
  -0.027699,
  -0.013235,
  0.009947,
  -0.008926,
  -0.011164,
  0.020345,
  0.047323,
  0.026588,
  -0.021133,
  0.022599,
  0.079822,
  -0.018993,
  -0.001959,
  0.065326,
  0.067012,
  -0.000070,
  -0.003443,
  0.020373,
  0.078254,
  0.014140,
  -0.048256,
  0.007162,
  0.020376,
  -0.006488,
  0.010803,
  0.027472,
  0.001678,
  -0.044357,
  0.078706,
  -0.029953,
  0.009771,
  0.015436,
  0.055445,
  -0.005305,
  0.004299,
  0.004985,
  0.030765,
  -0.011569,
  -0.007285,
  0.025664,
  -0.031896,
  0.007538,
  -0.020987,
  -0.007420,
  -0.024246,
  0.042616,
  -0.011088,
  0.011053,
  -0.019093,
  0.003811,
  0.025580,
  0.004045,
  -0.032553,
  -0.029779,
  0.009423,
  -0.029241,
  -0.027839,
  -0.007277,
  0.051604,
  -0.058258,
  0.017227,
  -0.025182,
  0.033195,
  -0.002248,
  -0.016340,
  0.003871,
  -0.025331,
  0.022189,
  -0.026872,
  0.013915,
  0.023503,
  0.027601,
  0.009415,
  -0.012663,
  -0.004580,
  0.024207,
  -0.027922,
  -0.026929,
  0.029743,
  -0.028929,
  -0.006387,
  0.030529,
  -0.067428,
  0.000405,
  0.001104,
  -0.042856,
  0.024031,
  0.008916,
  0.018119,
  0.063389,
  0.005871,
  -0.001419,
  0.019077,
  0.032678,
  0.005654,
  -0.004104,
  -0.017116,
  -0.015556,
  -0.002450,
  -0.025149,
  0.028609,
  -0.005493,
  -0.039885,
  -0.062482,
  -0.018635,
  -0.019674,
  0.015639,
  0.017206,
  0.054455,
  -0.072275,
  0.049655,
  -0.046208,
  -0.027245,
  0.006747,
  0.007188,
  -0.032164,
  0.047151,
  0.017364,
  -0.028609,
  -0.023183,
  -0.061020,
  -0.047056,
  0.024089,
  0.027100,
  0.007520,
  0.032550,
  -0.025700,
  -0.008877,
  0.009592,
  -0.039355,
  -0.036635,
  0.011391,
  -0.007911,
  -0.011731,
  0.013576,
  -0.031280,
  0.043027,
  0.000818,
  0.072370,
  0.020651,
  -0.028401,
  0.020909,
  0.013669,
  0.033484,
  0.015801,
  -0.034897,
  0.038614,
  -0.004187,
  0.035309,
  -0.023887,
  -0.013125,
  -0.021332,
  0.040977,
  0.010151,
  -0.068033,
  0.009201,
  0.016347,
  0.020379,
  -0.018791,
  0.045607,
  0.012538,
  -0.025586,
  -0.059914,
  0.010862,
  0.035148,
  -0.033871,
  -0.031855,
  0.027911,
  -0.014989,
  -0.000591,
  0.011434,
  0.020675,
  -0.057436,
  -0.026380,
  0.002848,
  0.021230,
  -0.073524,
  -0.010661,
  0.049740,
  0.034463,
  -0.033648,
  0.020891,
  0.000573,
  0.023412,
  0.010397,
  0.035991,
  0.010328,
  -0.060713,
  0.025493,
  0.017488,
  0.004678,
  -0.011289,
  -0.029563,
  0.008628,
  0.037370,
  0.004878,
  0.042527,
  0.015403,
  0.036272,
  -0.005584,
  0.011714,
  -0.028309,
  0.003559,
  0.016159,
  0.006247,
  0.013021,
  -0.006839,
  0.015277,
  0.005102,
  0.013505,
  0.011731,
  -0.057767,
  0.027474,
  0.039970,
  0.008172,
  -0.028314,
  0.003582,
  -0.011973,
  0.049011,
  -0.048534,
  -0.022159,
  0.000360,
  -0.054027,
  -0.032143,
  0.011532,
  -0.041676,
  0.008954,
  -0.032791,
  0.019683,
  0.009488,
  -0.002619,
  -0.016438,
  0.004625,
  -0.027335,
  -0.015542,
  -0.002358,
  0.053631,
  0.012334,
  -0.032684,
  -0.009537,
  0.007529,
  -0.008494,
  -0.060809,
  -0.034142,
  -0.032642,
  0.029382,
  -0.047357,
  -0.019307,
  -0.037335,
  0.005138,
  -0.021567,
  -0.028891,
  -0.018994,
  -0.034761,
  -0.001399,
  -0.026217,
  0.036896,
  0.039831,
  0.036456,
  -0.033019,
  -0.029876,
  0.026562,
  -0.051880,
  0.023552,
  -0.024510,
  -0.008565,
  0.004930,
  0.031448,
  0.035715,
  -0.049492,
  -0.040456,
  -0.005159,
  -0.019782,
  -0.034802,
  -0.026653,
  -0.023738,
  0.035207,
  0.011999,
  -0.011907,
  -0.000510,
  -0.040731,
  0.008404,
  -0.037733,
  0.026501,
  -0.022886,
  -0.023873,
  0.012700,
  0.062255,
  0.029448,
  0.014072,
  0.023596,
  0.016882,
  0.015682,
  0.014740,
  -0.038506,
  -0.016174,
  0.007384,
  0.006137,
  -0.022785,
  -0.002640,
  0.000764,
  0.007788,
  0.020384,
  0.030692,
  0.010777,
  0.029743,
  -0.012617,
  -0.038310,
  -0.016505,
  -0.022053,
  -0.046073,
  -0.015739,
  -0.023979,
  -0.040421,
  -0.009002,
  0.054219,
  0.034812,
  -0.028030,
  0.004404,
  -0.031143,
  -0.015123,
  0.026715,
  0.045952,
  0.018937,
  -0.019269,
  -0.033159,
  -0.006940,
  0.031652,
  0.067076,
  -0.010563,
  -0.014914,
  -0.025323,
  0.034912,
  0.037470,
  -0.003481,
  0.001099,
  0.003109,
  -0.022011,
  -0.037217,
  -0.018318,
  0.004052,
  -0.000385,
  -0.025397,
  0.007585,
  0.030017,
  0.017122,
  -0.021726,
  -0.000758,
  -0.012246,
  0.035402,
  0.030072,
  0.066451,
  0.057949,
  0.026052,
  0.043544,
  0.021130,
  0.016620,
  0.034245,
  0.018328,
  -0.011694,
  0.012834,
  -0.018349,
  -0.037848,
  -0.009127,
  -0.017507,
  0.048108,
  0.014662,
  0.004130,
  0.014968,
  -0.029781,
  0.040139,
  -0.035366,
  -0.060135,
  0.002567,
  0.036845,
  -0.002107,
  0.054023,
  0.019789,
  0.007195,
  0.022264,
  -0.004918,
  -0.013982,
  0.007148,
  -0.025265,
  0.015793,
  0.073972,
  0.041261,
  0.037258,
  -0.026928,
  -0.054289,
  -0.017574,
  0.010985,
  0.024855,
  -0.010320,
  -0.016196,
  -0.010370,
  0.017081,
  -0.018920,
  0.049807,
  0.026092,
  0.005597,
  0.007361,
  0.039267,
  -0.053994,
  0.019891,
  -0.006589,
  -0.031189,
  -0.017448,
  -0.025911,
  0.043120,
  -0.015218,
  0.022381,
  -0.006553,
  0.037222,
  -0.040452,
  0.005619,
  -0.006777,
  -0.039517,
  0.051622,
  0.004222,
  -0.016748,
  0.001077,
  -0.005688,
  0.027780,
  -0.005190,
  0.018648,
  -0.013982,
  -0.045820,
  0.017036,
  -0.037690,
  0.013950,
  0.025729,
  -0.059332,
  0.018531,
  0.034736,
  -0.000385,
  -0.007289,
  0.031163,
  -0.056359,
  -0.071253,
  -0.009981,
  0.028128,
  -0.069797,
  0.019354,
  -0.032432,
  0.004873,
  0.032043,
  0.022309,
  0.020259,
  -0.015398,
  0.005713,
  0.030522,
  0.008730,
  -0.023414,
  -0.008592,
  0.001152,
  0.005455,
  -0.024604,
  -0.001899,
  -0.023230,
  0.028290,
  0.040661,
  -0.017235,
  -0.058704,
  -0.021550,
  0.054208,
  -0.019491,
  0.024828,
  0.019200,
  0.023003,
  0.046022,
  -0.008762,
  0.053115,
  0.053190,
  -0.024149,
  -0.012825,
  -0.052949,
  -0.039975,
  0.053397,
  0.063262,
  -0.045040,
  -0.002461,
  0.037548,
  -0.052520,
  0.029867,
  0.009001,
  -0.066297,
  -0.028298,
  0.013104,
  -0.027094,
  0.001663,
  -0.009471,
  -0.033520,
  0.015070,
  -0.014534,
  -0.003127,
  -0.010477,
  -0.021495,
  -0.013054,
  0.054460,
  0.035568,
  0.014910,
  0.017062,
  -0.020114,
  0.044225,
  0.013162,
  0.026203,
  -0.022586,
  -0.007352,
  0.008246,
  -0.047300,
  -0.062119,
  0.043475,
  0.071863,
  -0.008407,
  -0.063169,
  -0.022141,
  0.009784,
  0.001415,
  0.024653,
  -0.031045,
  -0.003085,
  0.023927,
  0.040308,
  0.001733,
  0.022775,
  0.016009,
  0.032940,
  0.037946,
  -0.000948,
  -0.016207,
  0.020821,
  0.031043,
  0.009329,
  -0.031203,
  -0.013213,
  0.054846,
  0.019355,
  0.088891,
  0.072730,
  0.018834,
  -0.045043,
  -0.000522,
  0.018625,
  0.043499,
  -0.022657,
  -0.002767,
  0.007637,
  0.030653,
  -0.054063,
  0.008095,
  0.020669,
  0.022377,
  0.019869,
  0.046629,
  -0.001448,
  -0.000870,
  0.006510,
  0.012621,
  -0.000865,
  0.008888,
  0.034929,
  -0.023256,
  -0.007279,
  0.015766,
  0.005523,
  0.043931,
  0.006872,
  0.015641,
  0.022365,
  0.020296,
  0.026125,
  -0.022395,
  0.003020,
  -0.037626,
  0.013180,
  0.001216,
  -0.096325,
  0.014799,
  -0.048291,
  0.017420,
  0.015865,
  -0.009111,
  0.052470,
  -0.003017,
  -0.025472,
  -0.010773,
  -0.010627,
  -0.033158,
  0.006354,
  0.011270,
  -0.013547,
  -0.010566,
  0.000111,
  0.036045,
  -0.047650,
  0.052735,
  0.022682,
  -0.011251,
  0.006086,
  -0.014957,
  -0.037604,
  0.022896,
  0.043786,
  -0.041240,
  -0.045144,
  0.032340,
  0.048769,
  0.033201,
  -0.025910,
  -0.061640,
  0.039648,
  -0.008566,
  -0.004651,
  -0.030465,
  -0.010317,
  -0.054179,
  0.054809,
  0.010894,
  0.056686,
  0.057854,
  0.010096,
  0.000520,
  0.060277,
  -0.026620,
  0.025269,
  0.021630,
  -0.000442,
  0.046019,
  -0.032338,
  -0.030546,
  0.015839,
  0.004261,
  -0.031457,
  0.029956,
  0.000700,
  -0.006661,
  -0.033402,
  0.013515,
  -0.027444,
  -0.033143,
  -0.007107,
  -0.013660,
  0.010267,
  -0.020741,
  0.007655,
  0.002609,
  0.026500,
  0.004726,
  0.014198,
  0.026060,
  0.026420,
  -0.008119,
  0.032479,
  -0.042291,
  -0.014478,
  -0.011449,
  0.029555,
  0.047957,
  -0.083400,
  0.026772,
  0.008558,
  0.022304,
  0.002579,
  -0.018618,
  0.001794,
  0.017768,
  -0.009995,
  0.065427,
  0.041268,
  -0.036386,
  0.036958,
  0.043851,
  0.021581,
  0.002018,
  0.015034,
  -0.009983,
  0.005472,
  0.054340,
  0.015006,
  -0.035711,
  -0.011789,
  -0.039957,
  0.025775,
  -0.029497,
  -0.004710,
  0.023193,
  -0.003345,
  -0.025703,
  0.026731,
  -0.017441,
  -0.009919,
  0.014744,
  -0.016510,
  -0.073178,
  0.024868,
  0.012312,
  0.045148,
  -0.026948,
  -0.009650,
  -0.057142,
  -0.021582,
  0.045115,
  -0.030661,
  -0.032790,
  -0.002500,
  0.025394,
  -0.037819,
  0.000043,
  -0.038071,
  -0.018996,
  0.001471,
  0.029132,
  -0.008288,
  0.027865,
  0.031942,
  0.026763,
  0.004857,
  0.002998,
  -0.001044,
  -0.041880,
  0.035345,
  -0.029273,
  -0.015033,
  0.014976,
  0.047994,
  0.019540,
  -0.030032,
  0.001390,
  0.051090,
  0.015126,
  0.040546,
  -0.009343,
  0.005701,
  0.026550,
  0.005088,
  0.024577,
  -0.051654,
  -0.003098,
  0.048603,
  0.004406,
  -0.021239,
  0.022209,
  0.073849,
  0.008286,
  0.079828,
  -0.009443,
  -0.006635,
  -0.061078,
  0.015605,
  0.030016,
  0.006071,
  -0.100700,
  0.021403,
  0.008987,
  0.003768,
  0.009035,
  0.046659,
  0.003537,
  0.051046,
  -0.019732,
  0.062895,
  -0.048417,
  0.038167,
  -0.006798,
  0.024094,
  0.028420,
  0.012818,
  0.005691,
  0.024449,
  0.008689,
  -0.018908,
  -0.064768,
  -0.035602,
  0.040839,
  -0.026874,
  -0.006248,
  -0.039604,
  0.002043,
  0.009261,
  -0.023859,
  -0.050295,
  -0.017062,
  0.039446,
  -0.034865,
  0.008774,
  0.014171,
  0.011882,
  0.002522,
  -0.020898,
  0.044396,
  -0.088676,
  0.050925,
  -0.099391,
  0.045224,
  -0.003957,
  -0.035327,
  0.002006,
  -0.050521,
  0.026529,
  0.044131,
  -0.006478,
  -0.031639,
  -0.034749,
  0.004768,
  -0.035395,
  -0.022708,
  -0.055562,
  -0.013325,
  0.002091,
  0.009322,
  -0.030159,
  -0.004578,
  -0.009218,
  -0.042783,
  0.047313,
  -0.015463,
  -0.040888,
  -0.034885,
  -0.006074,
  -0.055137,
  -0.038662,
  0.093139,
  0.015384,
  -0.015812,
  0.019596,
  0.012025,
  -0.001333,
  -0.002257,
  -0.000901,
  0.007591,
  0.021404,
  -0.024262,
  -0.005527,
  0.049610,
  -0.003551,
  0.012222,
  0.023717,
  -0.019265,
  0.018299,
  -0.016846,
  0.014899,
  0.002182,
  0.016822,
  0.030087,
  -0.010287,
  0.042253,
  0.043116,
  -0.005861,
  -0.027349,
  -0.020961,
  0.075453,
  -0.022747,
  0.008199,
  0.053409,
  -0.017468,
  0.008469,
  0.026752,
  -0.007245,
  -0.094110,
  -0.019581,
  -0.000099,
  0.001434,
  0.044770,
  0.073498,
  -0.015607,
  0.005852,
  -0.015646,
  0.032759,
  0.034825,
  0.002257,
  0.025679,
  -0.082331,
  -0.007377,
  -0.086623,
  -0.011255,
  -0.011510,
  0.035074,
  0.001454,
  -0.004572,
  -0.034970,
  -0.033666,
  -0.038759,
  -0.043039,
  0.038503,
  0.037530,
  -0.017788,
  -0.050523,
  -0.011697,
  -0.016367,
  -0.000917,
  -0.019120,
  -0.002861,
  -0.033776,
  -0.000063,
  -0.019705,
  0.042641,
  -0.022158,
  -0.018120,
  -0.028413,
  -0.024238,
  0.039611,
  0.076598,
  -0.041540,
  -0.000412,
  0.012547,
  0.043565,
  -0.025074,
  0.001241,
  -0.013173,
  -0.002399,
  0.052973,
  -0.027859,
  -0.037448,
  -0.022721,
  -0.017276,
  0.002855,
  -0.032835,
  -0.019991,
  -0.000282,
  -0.029717,
  0.002873,
  -0.028909,
  0.032252,
  -0.010811,
  -0.029909,
  -0.004785,
  -0.054669,
  0.032459,
  0.007157,
  0.009251,
  -0.020779,
  -0.033197,
  -0.004934,
  -0.063336,
  0.016546,
  0.000823,
  0.004953,
  0.008874,
  0.008343,
  -0.007481,
  -0.009873,
  -0.000961,
  0.038632,
  -0.054808,
  0.043498,
  0.003068,
  -0.012741,
  0.012304,
  -0.032198,
  0.033318,
  0.012222,
  -0.029668,
  -0.015682,
  -0.016423,
  -0.015232,
  0.008085,
  -0.050288,
  0.055448,
  0.016169,
  0.026829,
  0.013450,
  -0.046990,
  -0.060178,
  0.009564,
  -0.049998,
  0.038020,
  0.035323,
  -0.051311,
  -0.002775,
  0.040165,
  -0.015361,
  -0.070007,
  -0.010601,
  0.030155,
  -0.033490,
  -0.007553,
  -0.037656,
  0.047294,
  -0.008817,
  -0.054522,
  0.069721,
  0.040665,
  0.038894,
  -0.013299,
  0.029009,
  -0.001535,
  0.024414,
  -0.015767,
  -0.009345,
  0.000991,
  -0.017484,
  -0.007383,
  -0.000191,
  -0.018537,
  -0.022954,
  -0.001520,
  0.020527,
  0.047448,
  0.000620,
  0.046228,
  0.017748,
  -0.024755,
  -0.056303,
  -0.012694,
  -0.018358,
  0.040458,
  0.054811,
  -0.017145,
  0.040173,
  -0.012627,
  -0.016925,
  -0.014662,
  -0.054114,
  -0.027224,
  0.019306,
  -0.021962,
  -0.001035,
  0.050195,
  -0.047077,
  -0.045911,
  0.057683,
  0.004102,
  0.069745,
  0.042206,
  -0.015997,
  0.036082,
  0.015036,
  -0.012722,
  -0.001715,
  -0.028973,
  -0.041319,
  0.044001,
  0.057142,
  0.070754,
  0.018403,
  0.006452,
  -0.019053,
  -0.001644,
  0.011150,
  0.043199,
  -0.008816,
  0.060594,
  0.068139,
  0.020254,
  -0.037990,
  0.023406,
  -0.038297,
  -0.016556,
  -0.009948,
  -0.019659,
  -0.032993,
  0.023881,
  0.001616,
  0.049014,
  0.012279,
  0.057751,
  -0.019729,
  0.009499,
  0.006747,
  -0.015057,
  0.018784,
  -0.015412,
  -0.029506,
  0.070075,
  0.048502,
  0.028099,
  -0.030577,
  0.072460,
  0.008570,
  0.063861,
  -0.006808,
  0.004650,
  -0.018794,
  -0.021134,
  0.020908,
  0.035503,
  0.010139,
  0.037677,
  -0.006847,
  0.006931,
  0.011738,
  0.048222,
  0.008331,
  -0.070234,
  -0.014330,
  0.039056,
  0.015529,
  0.008171,
  0.061774,
  0.013787,
  -0.027886,
  0.000741,
  -0.017853,
  -0.019608,
  0.038879,
  -0.003533,
  -0.010656,
  0.010419,
  -0.000101,
  -0.040529,
  0.002172,
  0.006844,
  -0.049566,
  -0.004714,
  0.005625,
  -0.013047,
  -0.007664,
  -0.049157,
  -0.001095,
  0.023105,
  -0.045189,
  0.005333,
  -0.009104,
  0.025110,
  -0.004212,
  -0.040153,
  0.013949,
  0.042025,
  -0.011325,
  0.022344,
  0.014964,
  0.037568,
  0.044298,
  0.011670,
  -0.002298,
  0.023966,
  -0.010226,
  -0.008401,
  0.040606,
  0.039149,
  0.044701,
  -0.043209,
  0.053816,
  -0.033264,
  0.011409,
  0.034150,
  -0.012779,
  -0.000903,
  0.036793,
  0.017410,
  -0.027713,
  -0.048041,
  -0.028056,
  0.000483,
  -0.030363,
  -0.058424,
  0.029305,
  -0.002004,
  0.012260,
  0.020154,
  0.014145,
  0.074152,
  -0.043785,
  0.010205,
  0.034923,
  0.046537,
  0.028741,
  -0.030975,
  0.001451,
  0.014854,
  -0.008383,
  -0.027579,
  -0.033304,
  -0.025249,
  0.029133,
  0.005995,
  0.016046,
  -0.015006,
  0.003731,
  -0.019122,
  -0.063255,
  0.018263,
  -0.019682,
  0.010222,
  -0.008810,
  0.023490,
  -0.086203,
  -0.014698,
  -0.044862,
  0.034303,
  -0.042419,
  -0.013346,
  -0.008969,
  -0.065489,
  0.004401,
  0.006218,
  0.012447,
  0.012203,
  -0.047056,
  0.009500,
  -0.007108,
  -0.016728,
  -0.055970,
  -0.010253,
  0.012940,
  -0.016572,
  0.001812,
  -0.053297,
  -0.016109,
  -0.054348,
  -0.010411,
  0.018642,
  -0.038417,
  0.008664,
  0.011239,
  -0.010376,
  0.016374,
  -0.041752,
  0.030855,
  0.043924,
  -0.051540,
  -0.001166,
  0.025661,
  -0.003998,
  -0.024584,
  0.034577,
  -0.061104,
  0.044543,
  -0.051284,
  -0.050240,
  -0.016005,
  0.078982,
  -0.003922,
  0.028402,
  0.018092,
  -0.024807,
  -0.025290,
  -0.024367,
  0.022725,
  0.047816,
  0.031379,
  0.008958,
  0.013792,
  0.046895,
  0.036953,
  -0.024160,
  0.025147,
  0.032419,
  -0.017972,
  0.018229,
  0.049325,
  0.032307,
  -0.017256,
  0.023545,
  -0.016754,
  0.007092,
  -0.033181,
  -0.048445,
  0.034030,
  0.020719,
  -0.002442,
  0.017584,
  0.039464,
  -0.058334,
  -0.030199,
  0.046807,
  0.006218,
  -0.058637,
  0.000927,
  0.033476,
  0.008169,
  -0.014692,
  -0.052022,
  0.013493,
  -0.020105,
  -0.034016,
  -0.006403,
  -0.010797,
  -0.008632,
  0.074615,
  0.020497,
  -0.106556,
  -0.050139,
  -0.068200,
  0.016698,
  0.033190,
  0.017087,
  -0.039309,
  0.007738,
  0.023852,
  0.036473,
  0.016507,
  0.041611,
  0.027624,
  0.026899,
  -0.069024,
  -0.076970,
  -0.004464,
  -0.052324,
  -0.066542,
  0.022996,
  0.032266,
  -0.071817,
  0.034359,
  -0.027657,
  0.024853,
  -0.039771,
  0.049590,
  0.010521,
  -0.025086,
  0.005078,
  0.014163,
  -0.008538,
  0.035859,
  0.017033,
  0.028968,
  -0.045315,
  -0.001800,
  0.025980,
  0.007164,
  0.009652,
  0.005184,
  -0.024751,
  -0.062601,
  -0.002095,
  -0.007093,
  0.006162,
  -0.020673,
  -0.036145,
  0.022828,
  -0.032680,
  0.000256,
  0.043518,
  -0.003661,
  0.006865,
  -0.033264,
  0.038834,
  -0.034906,
  0.032495,
  0.027000,
  -0.020564,
  0.012377,
  -0.024400,
  -0.006114,
  0.003071,
  0.030023,
  0.020481,
  0.034950,
  0.001164,
  -0.020860,
  -0.003719,
  0.016113,
  0.028523,
  -0.033125,
  0.036871,
  -0.034149,
  -0.038346,
  -0.045858,
  0.009782,
  -0.037497,
  -0.009987,
  0.036377,
  -0.007146,
  -0.007222,
  -0.034668,
  -0.057918,
  -0.025915,
  0.029045,
  0.022847,
  -0.014610,
  -0.001264,
  -0.001609,
  -0.059650,
  -0.043371,
  0.026243,
  0.003179,
  0.029806,
  -0.004846,
  -0.023777,
  0.001690,
  -0.010940,
  0.022435,
  0.042489,
  -0.029900,
  -0.057075,
  -0.086825,
  -0.012820,
  0.058653,
  0.020083,
  -0.011217,
  0.061556,
  0.017254,
  0.000314,
  -0.026946,
  0.069392,
  0.007328,
  0.020318,
  -0.039931,
  0.006892,
  -0.025643,
  -0.006417,
  -0.018643,
  0.000473,
  -0.007173,
  0.003904,
  -0.003245,
  0.020721,
  0.002945,
  -0.023603,
  -0.007054,
  -0.001330,
  -0.021165,
  -0.015543,
  -0.056251,
  0.019144,
  0.057045,
  0.005065,
  0.023200,
  0.032076,
  0.011977,
  0.013049,
  0.056975,
  0.001749,
  0.045815,
  -0.017530,
  -0.005171,
  -0.040425,
  -0.006257,
  0.014444,
  0.050231,
  0.008853,
  0.069241,
  -0.010337,
  -0.017747,
  0.041422,
  -0.035588,
  0.009800,
  0.033765,
  0.001675,
  -0.031082,
  0.016606,
  -0.007584,
  -0.004768,
  0.022069,
  0.021376,
  0.001945,
  -0.070651,
  0.001068,
  -0.009846,
  -0.009066,
  0.051345,
  -0.084671,
  0.060855,
  0.032230,
  0.024647,
  -0.018695,
  -0.039752,
  0.022336,
  -0.002988,
  -0.013427,
  -0.033255,
  0.035990,
  0.002009,
  0.019191,
  -0.011760,
  0.011334,
  -0.000491,
  -0.021377,
  -0.022467,
  0.042522,
  -0.028285,
  0.010004,
  -0.051385,
  -0.031212,
  0.017045,
  -0.013569,
  -0.028057,
  -0.009425,
  -0.063459,
  -0.002991,
  0.041965,
  -0.026890,
  -0.023522,
  0.017834,
  -0.022403,
  -0.033928,
  -0.006474,
  0.016416,
  -0.005170,
  0.032519,
  -0.027462,
  -0.020543,
  0.018635,
  -0.053497,
  -0.039753,
  0.049119,
  0.018816,
  -0.031369,
  -0.004902,
  -0.018730,
  0.018508,
  0.045286,
  -0.019621,
  -0.001951,
  0.040265,
  -0.027625,
  0.020833,
  -0.000955,
  -0.021663,
  -0.037533,
  -0.001362,
  0.021393,
  0.002042,
  0.032820,
  -0.030441,
  -0.016739,
  -0.019478,
  -0.041537,
  0.055298,
  0.043388,
  -0.010102,
  0.033366,
  -0.002817,
  -0.029445,
  -0.003828,
  -0.056942,
  -0.002096,
  -0.027155,
  -0.040733,
  0.024597,
  -0.008355,
  0.025442,
  -0.019456,
  0.014995,
  0.031133,
  -0.038477,
  0.033581,
  -0.006539,
  -0.011270,
  -0.017491,
  -0.009001,
  -0.008457,
  0.020354,
  -0.018918,
  -0.038198,
  -0.021728,
  -0.009446,
  0.032978,
  -0.085860,
  -0.003088,
  0.020559,
  -0.033683,
  -0.017525,
  0.014838,
  0.037678,
  -0.037819,
  0.025928,
  0.003012,
  -0.005940,
  -0.016771,
  -0.013413,
  -0.014936,
  -0.023315,
  -0.038436,
  0.016527,
  0.006852,
  0.000919,
  -0.018660,
  0.001744,
  -0.003276,
  -0.003853,
  0.019223,
  -0.017210,
  -0.019551,
  -0.022946,
  0.052711,
  0.070859,
  -0.032711,
  0.019802,
  -0.050896,
  0.046517,
  0.016079,
  0.012936,
  -0.045391,
  0.007577,
  -0.021245,
  0.046780,
  0.044670,
  -0.030519,
  -0.022494,
  0.001014,
  0.019617,
  0.024976,
  0.025156,
  0.024517,
  0.014613,
  -0.055817,
  0.007261,
  -0.019951,
  0.010777,
  -0.029314,
  -0.021558,
  -0.039026,
  0.028338,
  -0.043090,
  0.021121,
  -0.019963,
  -0.021762,
  -0.024715,
  -0.023176,
  -0.002421,
  -0.034354,
  0.050052,
  -0.042975,
  0.015573,
  -0.013490,
  0.012915,
  -0.082196,
  0.035524,
  0.015374,
  -0.035222,
  -0.013573,
  0.001826,
  0.024292,
  0.002993,
  0.004740,
  -0.030911,
  -0.003436,
  0.032217,
  -0.021956,
  0.049118,
  -0.046790,
  -0.010858,
  -0.014522,
  0.034696,
  -0.002736,
  -0.024546,
  0.020133,
  0.017717,
  -0.053574,
  0.030388,
  -0.048222,
  0.035079,
  -0.010897,
  0.058815,
  0.008655,
  -0.062607,
  -0.047611,
  -0.055431,
  0.003417,
  0.023897,
  -0.002767,
  -0.037582,
  -0.013928,
  -0.045012,
  -0.014618,
  -0.030053,
  -0.003576,
  -0.019004,
  0.014030,
  0.006577,
  0.016404,
  -0.025220,
  -0.009177,
  0.058258,
  0.001665,
  -0.009081,
  0.002512,
  -0.012055,
  -0.028925,
  -0.011369,
  0.071824,
  -0.055700,
  0.022123,
  0.013340,
  0.031994,
  -0.058984,
  -0.007189,
  0.047403,
  -0.003705,
  -0.017855,
  0.003281,
  -0.014435,
  0.000507,
  -0.001035,
  0.003041,
  -0.042332,
  0.054709,
  0.005483,
  -0.048883,
  0.019006,
  0.025700,
  -0.030615,
  0.048755,
  -0.008407,
  0.014817,
  0.013938,
  0.011818,
  -0.032877,
  0.029211,
  0.024619,
  0.055929,
  0.018963,
  0.010030,
  -0.014034,
  -0.007405,
  0.029288,
  -0.019037,
  0.005024,
  -0.048834,
  -0.027510,
  0.026353,
  0.028007,
  -0.062276,
  0.040951,
  0.024841,
  0.015458,
  -0.034279,
  0.006130,
  -0.036505,
  0.030364,
  -0.056296,
  0.001066,
  0.013796,
  -0.022091,
  -0.031092,
  -0.074173,
  0.045150,
  0.035659,
  0.001138,
  -0.010347,
  -0.013481,
  0.022948,
  0.010900,
  0.007385,
  0.038995,
  0.010423,
  -0.031439,
  0.041092,
  0.005233,
  -0.032531,
  0.020630,
  -0.005140,
  0.030562,
  -0.005978,
  0.032013,
  0.017733,
  0.061212,
  -0.064192,
  -0.008765,
  0.029554,
  0.022950,
  -0.009421,
  -0.003656,
  0.008551,
  -0.007287,
  0.013790,
  0.003966,
  0.008759,
  -0.069630,
  -0.022613,
  0.017156,
  0.030573,
  0.008492,
  0.002065,
  -0.026671,
  -0.042665,
  -0.041708,
  0.055529,
  0.045699,
  0.007555,
  -0.039322,
  -0.011001,
  0.018912,
  -0.018706,
  -0.023873,
  -0.095665,
  0.029761,
  -0.011432,
  -0.046942,
  -0.010679,
  -0.098485,
  0.030459,
  -0.014622,
  0.011228,
  -0.001453,
  -0.023428,
  0.029843,
  -0.002759,
  0.037368,
  -0.004394,
  -0.023419,
  -0.011181,
  0.003766,
  -0.033093,
  0.015333,
  0.004691,
  -0.043966,
  0.029810,
  0.051777,
  -0.008199,
  0.012362,
  -0.009069,
  -0.044096,
  0.056110,
  -0.020420,
  0.013360,
  -0.043162,
  0.015320,
  -0.016588,
  0.010406,
  0.059958,
  0.002870,
  0.028498,
  0.004480,
  -0.047851,
  -0.034621,
  0.032390,
  -0.041219,
  0.002266,
  -0.042442,
  0.015607,
  0.051373,
  0.005365,
  -0.007584,
  -0.003102,
  0.007841,
  -0.048392,
  0.039244,
  -0.028871,
  0.008912,
  -0.001176,
  0.025212,
  -0.002740,
  0.021993,
  -0.001593,
  0.026744,
  -0.025849,
  0.001186,
  -0.023506,
  -0.031085,
  0.013308,
  -0.020510,
  -0.024651,
  -0.018349,
  -0.011512,
  -0.027430,
  0.005679,
  -0.028915,
  -0.051523,
  -0.019670,
  0.022612,
  -0.033194,
  0.045890,
  -0.019214,
  -0.016042,
  0.012474,
  0.034297,
  0.028977,
  0.004479,
  0.031037,
  -0.040389,
  -0.029734,
  -0.015029,
  0.049083,
  -0.026798,
  0.012524,
  -0.040896,
  0.023559,
  0.009447,
  -0.037554,
  0.025718,
  -0.009806,
  -0.084789,
  0.042749,
  -0.034824,
  0.013838,
  -0.000992,
  0.015939,
  -0.067565,
  0.003573,
  0.005068,
  0.045642,
  0.037433,
  -0.032124,
  0.063233,
  0.011312,
  -0.001938,
  -0.029125,
  -0.027132,
  0.038716,
  0.004793,
  0.005207,
  0.024977,
  0.001195,
  -0.009996,
  0.049202,
  0.021830,
  0.018853,
  -0.011885,
  -0.024649,
  -0.043139,
  -0.017287,
  -0.044395,
  0.074104,
  0.020469,
  0.012085,
  -0.018630,
  -0.009877,
  -0.026841,
  -0.020746,
  -0.012427,
  -0.033849,
  0.027333,
  -0.032220,
  -0.010006,
  0.013741,
  0.014161,
  -0.017025,
  0.008708,
  -0.023170,
  0.055110,
  -0.021969,
  0.015566,
  -0.064414,
  -0.014112,
  0.023309,
  0.011995,
  0.004889,
  0.000672,
  -0.039517,
  0.006054,
  -0.024238,
  -0.003584,
  -0.082685,
  0.004912,
  -0.053350,
  0.026944,
  0.003459,
  -0.041409,
  -0.017352,
  0.007858,
  -0.010263,
  0.043929,
  -0.057399,
  0.016151,
  -0.051921,
  0.007375,
  0.018371,
  -0.004854,
  -0.029560,
  0.037146,
  0.001336,
  -0.055219,
  0.041965,
  -0.092009,
  -0.025843,
  0.027907,
  -0.008390,
  -0.055616,
  -0.015894,
  -0.039842,
  -0.004153,
  0.004988,
  0.020910,
  -0.034286,
  -0.035640,
  0.035080,
  0.008612,
  -0.027702,
  0.051525,
  -0.044788,
  -0.012254,
  -0.014952,
  0.027696,
  0.062310,
  0.029178,
  0.036419,
  -0.007782,
  0.034251,
  -0.003184,
  0.021669,
  -0.017128,
  0.018912,
  0.001817,
  -0.009999,
  -0.008895,
  -0.021642,
  -0.024068,
  -0.010218,
  0.023628,
  0.003198,
  -0.002082,
  0.001880,
  -0.041453,
  -0.013692,
  0.019951,
  0.026469,
  0.029827,
  -0.060923,
  -0.008940,
  0.011366,
  0.030691,
  -0.010277,
  0.004541,
  0.004206,
  -0.042211,
  -0.024401,
  0.021811,
  0.003868,
  -0.042762,
  -0.005681,
  0.039161,
  -0.010350,
  -0.014875,
  0.019999,
  0.020595,
  0.007981,
  0.006877,
  0.017284,
  -0.003508,
  -0.007400,
  0.068283,
  0.041285,
  -0.014850,
  -0.034789,
  -0.065984,
  0.045465,
  -0.027703,
  0.032799,
  -0.044970,
  0.001758,
  0.007490,
  -0.040813,
  0.007523,
  -0.034467,
  0.032558,
  0.051794,
  0.008030,
  0.021534,
  -0.026003,
  0.015050,
  -0.018091,
  0.020701,
  0.044399,
  0.030373,
  -0.029600,
  0.049641,
  -0.022440,
  0.041942,
  0.005509,
  -0.006747,
  0.031990,
  -0.016980,
  -0.048427,
  0.021384,
  0.004328,
  -0.046991,
  -0.010987,
  -0.009681,
  -0.028765,
  -0.014913,
  0.015310,
  0.033236,
  -0.001641,
  0.030178,
  0.010791,
  0.022147,
  0.031335,
  0.018213,
  0.054008,
  -0.006571,
  -0.052495,
  -0.046096,
  -0.035423,
  0.036836,
  0.038562,
  -0.018862,
  0.040094,
  -0.018627,
  0.040194,
  0.044647,
  0.009601,
  0.014866,
  -0.065088,
  0.024961,
  -0.036694,
  0.028523,
  -0.006940,
  -0.027310,
  -0.001080,
  -0.028237,
  0.031252,
  0.050270,
  0.020812,
  -0.031778,
  0.037351,
  0.034526,
  -0.004494,
  0.048774,
  0.010382,
  -0.010096,
  -0.002113,
  -0.014091,
  0.060227,
  -0.068498,
  0.037240,
  0.041014,
  -0.028191,
  -0.015704,
  0.002796,
  -0.024237,
  -0.006740,
  0.008428,
  0.000748,
  0.012747,
  -0.065186,
  0.005000,
  0.024934,
  -0.009370,
  0.068063,
  0.009904,
  0.049696,
  -0.006361,
  -0.013363,
  0.004413,
  0.005961,
  0.007693,
  -0.002110,
  -0.003569,
  -0.022534,
  0.030077,
  0.075482,
  -0.005730,
  0.010736,
  0.005998,
  0.009730,
  -0.029850,
  0.068950,
  0.032305,
  -0.026467,
  0.081886,
  0.008707,
  0.011738,
  -0.031715,
  0.030616,
  -0.004730,
  -0.064178,
  -0.027497,
  -0.026095,
  0.035876,
  -0.065338,
  0.025746,
  0.007931,
  -0.061012,
  -0.013879,
  -0.060621,
  -0.023048,
  -0.018778,
  0.036521,
  -0.101618,
  -0.077985,
  -0.035682,
  -0.000764,
  -0.013941,
  0.014353,
  0.002233,
  -0.025509,
  0.009774,
  0.034263,
  0.039567,
  0.041836,
  0.018229,
  -0.049985,
  0.002700,
  -0.015843,
  0.023644,
  -0.015716,
  -0.007118,
  -0.005260,
  0.033346,
  -0.040136,
  0.076367,
  0.083268,
  0.022751,
  -0.009656,
  -0.003513,
  -0.009551,
  0.001354,
  0.006307,
  0.016457,
  -0.010866,
  0.006794,
  0.066588,
  -0.007204,
  -0.035053,
  0.063232,
  -0.005655,
  -0.015186,
  0.023796,
  0.034613,
  0.013725,
  -0.011067,
  0.031166,
  0.002470,
  0.034445,
  -0.012479,
  0.031043,
  0.032095,
  -0.000371,
  0.014167,
  0.044616,
  0.010713,
  0.022061,
  -0.026668,
  -0.025829,
  -0.027446,
  0.022931,
  -0.060692,
  -0.008702,
  0.002442,
  -0.020281,
  -0.070399,
  -0.014339,
  0.004838,
  -0.034433,
  -0.007950,
  0.013551,
  -0.017357,
  0.009430,
  -0.016492,
  -0.051276,
  0.000673,
  0.000017,
  0.010457,
  -0.044459,
  0.011763,
  0.013857,
  -0.025968,
  0.008415,
  0.010671,
  -0.034747,
  -0.069902,
  -0.019483,
  -0.026291,
  0.027985,
  -0.028096,
  0.032847,
  -0.027232,
  0.008416,
  -0.051770,
  -0.019628,
  -0.025357,
  0.030024,
  0.026000,
  0.017443,
  -0.021359,
  0.023770,
  0.061938,
  0.008960,
  0.026373,
  -0.013157,
  0.045503,
  -0.031800,
  0.006185,
  0.034514,
  0.047784,
  -0.039182,
  -0.030657,
  0.041141,
  -0.039451,
  -0.004431,
  -0.021077,
  0.028525,
  0.012592,
  0.017980,
  0.014165,
  -0.028828,
  -0.063017,
  0.073346,
  0.016995,
  0.061081,
  0.018963,
  0.002300,
  -0.034199,
  0.007744,
  0.028699,
  0.013678,
  -0.015886,
  0.024159,
  0.042502,
  -0.008982,
  0.049876,
  -0.030590,
  0.006254,
  0.027091,
  -0.008130,
  0.043335,
  0.034142,
  -0.018415,
  0.027990,
  0.027722,
  -0.066159,
  -0.013009,
  0.001800,
  0.008336,
  0.081882,
  -0.038390,
  0.016009,
  -0.030907,
  -0.012826,
  0.023821,
  -0.003642,
  -0.020428,
  0.035330,
  -0.012370,
  0.019081,
  -0.027965,
  0.033495,
  0.017248,
  0.057370,
  -0.021107,
  -0.011421,
  0.029241,
  0.016040,
  0.016373,
  0.050979,
  -0.076475,
  -0.017468,
  0.003512,
  -0.037859,
  -0.031548,
  -0.036565,
  -0.003914,
  -0.003292,
  0.045342,
  -0.059084,
  -0.029817,
  -0.002195,
  -0.024323,
  0.062887,
  0.024681,
  0.002258,
  0.011968,
  0.004925,
  0.008474,
  0.058299,
  0.031980,
  0.027908,
  -0.018530,
  0.051320,
  0.016692,
  0.023828,
  -0.001477,
  -0.061379,
  0.001061,
  -0.017773,
  0.029821,
  -0.023174,
  -0.021660,
  0.004518,
  0.015237,
  -0.033542,
  -0.020219,
  -0.030167,
  -0.033514,
  -0.025482,
  -0.034045,
  0.043545,
  0.012130,
  0.028936,
  -0.024056,
  0.005988,
  0.029285,
  0.031783,
  0.031028,
  -0.067791,
  0.017345,
  0.060107,
  -0.000672,
  0.032399,
  -0.023698,
  -0.017582,
  0.038259,
  -0.024442,
  -0.084430,
  0.009621,
  0.067036,
  0.004017,
  -0.006071,
  0.001526,
  -0.027964,
  0.015933,
  0.038794,
  -0.002579,
  0.033025,
  -0.030063,
  0.034481,
  0.003293,
  -0.053995,
  -0.004413,
  0.063263,
  -0.011038,
  -0.051626,
  -0.020359,
  -0.002915,
  0.032426,
  0.014564,
  0.002573,
  -0.005661,
  0.044717,
  0.013497,
  0.044580,
  -0.011119,
  -0.044990,
  -0.002874,
  -0.050412,
  -0.013958,
  -0.046263,
  -0.001568,
  -0.020209,
  -0.030648,
  0.023620,
  0.018380,
  -0.000340,
  -0.007280,
  0.064176,
  0.025757,
  -0.053171,
  0.056794,
  -0.009373,
  -0.012145,
  0.080902,
  -0.038351,
  0.012889,
  -0.007228,
  0.044503,
  -0.054994,
  -0.005194,
  0.014382,
  -0.027806,
  0.013818,
  0.030687,
  0.007629,
  -0.020369,
  0.034253,
  -0.037371,
  0.005901,
  -0.022181,
  0.007320,
  0.023557,
  0.016513,
  -0.017780,
  -0.006157,
  -0.005049,
  0.038880,
  -0.035653,
  -0.044971,
  -0.022167,
  -0.008132,
  -0.021951,
  0.053321,
  0.010446,
  -0.015375,
  -0.003906,
  0.012119,
  0.017424,
  0.044621,
  0.015180,
  0.048660,
  0.014937,
  -0.051376,
  -0.004630,
  -0.055417,
  0.027005,
  0.004503,
  -0.010987,
  -0.021345,
  -0.021056,
  -0.051143,
  -0.040154,
  -0.026120,
  -0.004360,
  0.043151,
  0.039265,
  0.010071,
  -0.060345,
  0.041543,
  0.037869,
  0.007280,
  -0.076341,
  0.039024,
  0.000093,
  0.008852,
  -0.012933,
  0.012261,
  -0.003022,
  0.012452,
  0.024125,
  -0.034569,
  -0.001543,
  -0.038473,
  -0.019920,
  0.025802,
  -0.052073,
  0.003557,
  -0.000729,
  -0.008242,
  0.034154,
  0.057551,
  0.036039,
  0.020116,
  -0.040717,
  -0.053589,
  0.001260,
  0.050314,
  0.018894,
  0.009972,
  -0.030602,
  0.012712,
  0.050002,
  -0.007473,
  0.001869,
  -0.015701,
  -0.053845,
  0.034681,
  -0.038293,
  -0.000537,
  -0.067590,
  0.017784,
  -0.036036,
  -0.003104,
  0.022049,
  0.000879,
  -0.012869,
  0.006471,
  -0.035462,
  -0.016872,
  0.027418,
  -0.015555,
  -0.024613,
  -0.024232,
  0.054510,
  -0.005187,
  0.029970,
  -0.025331,
  0.017994,
  0.009431,
  0.013104,
  0.012011,
  0.065037,
  0.045699,
  -0.037344,
  -0.027268,
  -0.016798,
  -0.086457,
  0.047122,
  0.019256,
  0.004255,
  0.019759,
  0.013947,
  0.031067,
  0.036854,
  -0.001509,
  0.016529,
  0.001693,
  -0.001367,
  0.027954,
  0.027857,
  0.015734,
  0.018112,
  -0.016637,
  0.002589,
  -0.027268,
  0.012805,
  -0.007433,
  -0.009719,
  -0.052177,
  -0.036609,
  -0.037931,
  -0.026183,
  -0.002367,
  -0.030574,
  0.027603,
  -0.020029,
  0.034200,
  -0.028157,
  0.020554,
  0.042263,
  0.001995,
  -0.012061,
  0.001380,
  0.010014,
  -0.000764,
  -0.046531,
  0.010295,
  0.007525,
  0.016658,
  0.015982,
  0.043659,
  0.021144,
  -0.047862,
  -0.047856,
  0.022771,
  -0.024936,
  0.012061,
  -0.046870,
  0.061384,
  -0.036909,
  0.051097,
  -0.013017,
  -0.054764,
  -0.016587,
  0.007811,
  0.039899,
  -0.039025,
  0.012305,
  -0.006648,
  0.024639,
  -0.007035,
  0.022305,
  -0.028026,
  0.003267,
  0.005367,
  0.013462,
  0.047186,
  0.012194,
  0.019804,
  -0.000907,
  -0.008139,
  -0.003094,
  -0.022979,
  0.019699,
  -0.050423,
  -0.037887,
  -0.042650,
  -0.028726,
  -0.017792,
  0.004004,
  -0.003848,
  -0.009290,
  -0.002182,
  -0.047928,
  0.023619,
  -0.012338,
  -0.039977,
  -0.020907,
  -0.072919,
  -0.002965,
  -0.068009,
  0.043548,
  0.007800,
  -0.017972,
  -0.023230,
  0.015445,
  -0.065208,
  0.000670,
  0.020858,
  -0.003003,
  0.057254,
  0.056588,
  0.019576,
  0.023556,
  0.027263,
  0.002935,
  -0.020580,
  0.064149,
  0.022864,
  -0.044524,
  0.048682,
  0.021336,
  0.038251,
  0.000013,
  -0.028123,
  -0.006673,
  0.046198,
  -0.001620,
  0.049827,
  -0.032013,
  -0.061307,
  0.010162,
  0.004852,
  0.030269,
  0.064750,
  0.002755,
  0.052387,
  0.032037,
  0.034224,
  -0.007012,
  -0.007493,
  -0.001477,
  0.000161,
  -0.034965,
  -0.007606,
  -0.016331,
  0.015380,
  -0.005039,
  -0.043122,
  -0.031979,
  0.037681,
  0.040387,
  -0.063756,
  0.000844,
  0.004557,
  -0.027182,
  -0.008672,
  0.004052,
  0.047440,
  -0.026376,
  0.053746,
  -0.012648,
  0.008109,
  -0.014666,
  -0.041478,
  -0.033851,
  0.016005,
  0.039390,
  0.015422,
  0.010214,
  0.032996,
  -0.037817,
  0.029927,
  0.018489,
  0.020135,
  -0.042356,
  0.000370,
  -0.068665,
  -0.015390,
  -0.001275,
  0.000288,
  0.027446,
  0.009533,
  0.011035,
  0.002824,
  -0.003538,
  0.068712,
  0.004197,
  0.019409,
  0.027119,
  -0.006280,
  -0.032422,
  0.049111,
  -0.017906,
  -0.016996,
  -0.005258,
  0.018282,
  -0.034153,
  0.023138,
  0.028808,
  0.048707,
  -0.011564,
  -0.053066,
  -0.016604,
  -0.012382,
  0.018900,
  -0.027730,
  0.031097,
  0.039368,
  0.006752,
  -0.012624,
  0.002917,
  0.069433,
  -0.008832,
  -0.011451,
  -0.047068,
  0.034629,
  0.045031,
  -0.005966,
  0.026497,
  0.000391,
  -0.045523,
  0.021489,
  -0.025386,
  -0.034032,
  0.005967,
  0.007234,
  -0.030987,
  -0.051374,
  -0.019279,
  -0.018682,
  0.036182,
  0.019370,
  -0.000888,
  0.014763,
  -0.026244,
  0.053481,
  0.040267,
  -0.035539,
  0.015162,
  -0.042331,
  -0.030897,
  -0.009613,
  -0.030529,
  -0.052716,
  -0.014043,
  -0.008047,
  0.053848,
  -0.040472,
  0.015943,
  0.027172,
  0.034480,
  0.000530,
  0.008604,
  0.029586,
  0.020578,
  -0.009057,
  0.027368,
  0.010391,
  0.046530,
  -0.026888,
  0.045696,
  0.007238,
  -0.018607,
  -0.012868,
  -0.031198,
  -0.053912,
  -0.015745,
  0.022800,
  0.022506,
  -0.070124,
  -0.001001,
  0.034052,
  0.041342,
  0.044654,
  -0.071132,
  0.020970,
  0.034176,
  0.014191,
  0.021379,
  0.028726,
  0.031677,
  -0.040048,
  -0.011480,
  -0.016002,
  0.027821,
  0.054427,
  0.039645,
  0.043740,
  0.076602,
  -0.051743,
  0.005686,
  -0.033015,
  0.029780,
  -0.034977,
  -0.004952,
  0.038495,
  -0.026147,
  -0.033349,
  -0.083123,
  0.050199,
  0.027760,
  -0.074331,
  -0.004854,
  -0.026547,
  -0.004659,
  -0.054949,
  0.036023,
  -0.024157,
  0.017723,
  0.001243,
  0.017996,
  0.034775,
  0.020929,
  -0.010621,
  -0.023413,
  0.016751,
  -0.006823,
  0.011048,
  -0.006962,
  0.026640,
  0.001291,
  0.009540,
  -0.013002,
  0.050644,
  -0.045435,
  0.029752,
  0.045895,
  0.048617,
  -0.053004,
  -0.027295,
  0.007968,
  0.024950,
  0.011742,
  -0.020317,
  -0.014773,
  0.018190,
  0.052653,
  -0.009605,
  -0.038724,
  -0.006169,
  -0.030679,
  0.024290,
  0.016050,
  0.017088,
  0.026823,
  0.025297,
  -0.010418,
  -0.008718,
  0.027141,
  0.030605,
  -0.035968,
  0.011423,
  -0.015459,
  -0.038188,
  -0.015352,
  -0.018725,
  -0.012827,
  -0.043567,
  -0.015824,
  0.027267,
  -0.011051,
  0.050077,
  -0.057014,
  0.028705,
  0.023522,
  -0.004729,
  -0.025393,
  -0.023252,
  -0.009222,
  0.087706,
  -0.002794,
  -0.025354,
  0.004009,
  -0.001079,
  0.016329,
  0.020136,
  0.018799,
  -0.016662,
  -0.019509,
  0.004988,
  0.024076,
  -0.006943,
  -0.021560,
  -0.049979,
  0.005920,
  0.032055,
  -0.080446,
  -0.042120,
  0.007973,
  0.025370,
  -0.012350,
  0.001342,
  0.036321,
  -0.030245,
  -0.021183,
  0.040972,
  0.002860,
  -0.021023,
  -0.010805,
  0.002174,
  0.057782,
  -0.007266,
  -0.027174,
  -0.000019,
  -0.025497,
  0.012068,
  0.014429,
  0.036248,
  0.025749,
  -0.019662,
  0.010257,
  0.026217,
  -0.029343,
  0.022273,
  -0.016839,
  -0.029656,
  0.018996,
  -0.046758,
  0.008469,
  -0.031888,
  -0.045828,
  -0.053891,
  0.006864,
  -0.018208,
  0.001428,
  -0.001275,
  -0.030920,
  -0.019501,
  0.007350,
  0.063302,
  0.011363,
  -0.037732,
  0.055257,
  0.063005,
  0.014039,
  -0.040209,
  0.023308,
  0.016525,
  0.011159,
  -0.048974,
  0.002612,
  0.029080,
  0.003585,
  0.034318,
  0.071129,
  0.012785,
  0.046018,
  -0.015407,
  0.002553,
  -0.020386,
  -0.057686,
  0.006509,
  -0.024664,
  0.007487,
  -0.040700,
  0.035047,
  -0.011767,
  0.066432,
  0.008018,
  -0.019089,
  0.008283,
  -0.033273,
  -0.031351,
  -0.064370,
  -0.008060,
  0.008016,
  -0.012186,
  0.049322,
  -0.014078,
  0.014638,
  -0.009082,
  -0.011700,
  -0.006974,
  -0.021497,
  -0.054558,
  -0.022810,
  -0.018896,
  -0.005728,
  -0.009839,
  0.007877,
  -0.012991,
  0.018757,
  -0.017717,
  0.037605,
  0.012460,
  -0.011962,
  0.001716,
  -0.010573,
  -0.026137,
  -0.001674,
  0.014244,
  -0.015479,
  0.016924,
  -0.001103,
  0.036051,
  -0.026422,
  -0.029402,
  -0.018244,
  -0.023215,
  0.012971,
  0.022663,
  0.017330,
  0.041612,
  -0.020650,
  -0.004235,
  0.005165,
  0.036878,
  0.011491,
  -0.006063,
  0.060651,
  -0.013279,
  -0.015036,
  0.084251,
  -0.004396,
  -0.033762,
  -0.038103,
  -0.027594,
  -0.031491,
  0.026032,
  -0.064881,
  -0.013560,
  0.010577,
  0.041882,
  0.007809,
  -0.028060,
  0.001121,
  -0.010255,
  -0.013412,
  -0.008377,
  -0.005945,
  0.016925,
  0.011481,
  0.030169,
  -0.044569,
  0.013571,
  -0.057591,
  -0.060560,
  0.030148,
  0.039214,
  -0.015368,
  -0.020736,
  0.003362,
  -0.028050,
  -0.012300,
  -0.012864,
  0.018372,
  0.039907,
  0.005526,
  0.003762,
  -0.005414,
  -0.014570,
  -0.001193,
  0.008441,
  -0.006326,
  -0.014791,
  0.044042,
  -0.003389,
  0.053188,
  -0.015110,
  0.016877,
  0.004967,
  -0.016325,
  -0.006266,
  -0.014663,
  0.038053,
  -0.023998,
  0.040739,
  -0.004004,
  -0.020830,
  0.021198,
  -0.002667,
  -0.065419,
  0.003479,
  0.027405,
  -0.041164,
  0.030092,
  0.011022,
  0.022658,
  0.033271,
  -0.017437,
  -0.006134,
  0.014675,
  0.032019,
  0.011844,
  -0.032384,
  0.006830,
  -0.018286,
  0.022518,
  -0.042018,
  0.008500,
  -0.027252,
  0.094335,
  0.063454,
  0.014446,
  -0.003088,
  -0.037499,
  -0.027184,
  -0.011494,
  -0.019192,
  0.004576,
  -0.009063,
  -0.001247,
  0.041769,
  0.061725,
  -0.029329,
  0.055347,
  -0.013263,
  -0.027673,
  -0.026335,
  0.032198,
  0.016018,
  0.033240,
  -0.006898,
  0.044060,
  0.013666,
  0.009576,
  0.016772,
  0.039064,
  0.072498,
  0.090911,
  -0.019650,
  -0.053702,
  -0.030379,
  -0.010383,
  0.019441,
  0.009158,
  -0.047961,
  -0.015561,
  -0.003887,
  0.011579,
  0.016271,
  0.002121,
  -0.000732,
  -0.046964,
  0.014598,
  0.001122,
  0.033972,
  -0.005362,
  -0.010260,
  -0.008259,
  0.063433,
  -0.046752,
  -0.020451,
  0.003517,
  0.015279,
  -0.013866,
  0.007036,
  0.000697,
  -0.004482,
  -0.006776,
  0.012862,
  -0.033982,
  0.013317,
  0.017036,
  0.035155,
  0.023504,
  0.063459,
  -0.001453,
  0.038952,
  0.008102,
  0.001083,
  0.024196,
  0.035135,
  -0.037762,
  -0.015301,
  -0.009695,
  0.003854,
  0.034218,
  -0.026910,
  -0.008953,
  0.018811,
  0.004684,
  0.002016,
  0.013075,
  -0.043780,
  -0.029112,
  -0.027027,
  -0.023682,
  -0.032041,
  -0.003053,
  0.013976,
  0.011320,
  0.007142,
  0.040139,
  -0.035376,
  -0.019979,
  -0.022487,
  0.001279,
  0.022832,
  0.001986,
  -0.027300,
  -0.015235,
  0.052867,
  0.001605,
  -0.029308,
  -0.007799,
  -0.007512,
  0.025320,
  0.019334,
  -0.000151,
  -0.017447,
  -0.041813,
  0.004160,
  -0.001009,
  -0.011487,
  -0.004098,
  -0.001873,
  -0.005994,
  0.002373,
  -0.009334,
  -0.008471,
  0.011198,
  0.008183,
  0.000618,
  -0.003480,
  0.004282,
  0.054406,
  0.001004,
  0.007529,
  0.001274,
  -0.034916,
  0.054469,
  -0.022143,
  -0.023117,
  0.016376,
  0.006900,
  0.014326,
  0.021807,
  0.003451,
  -0.025548,
  -0.006665,
  -0.046637,
  -0.003719,
  -0.005725,
  0.010065,
  -0.035337,
  0.003362,
  0.035539,
  -0.008314,
  0.034039,
  0.019212,
  0.000312,
  0.034073,
  -0.015289,
  -0.031485,
  -0.000419,
  0.015022,
  0.045240,
  -0.067216,
  0.019917,
  0.013927,
  0.014391,
  -0.073480,
  -0.005303,
  0.021040,
  -0.049416,
  -0.010395,
  -0.048699,
  -0.020054,
  -0.037013,
  -0.011135,
  -0.032836,
  0.034228,
  0.036593,
  0.009340,
  -0.002098,
  0.030076,
  0.016925,
  -0.002987,
  0.003484,
  0.004280,
  0.015030,
  -0.014035,
  0.014006,
  0.078257,
  -0.013247,
  -0.005117,
  -0.017235,
  0.000109,
  0.014035,
  0.030299,
  -0.019889,
  -0.060195,
  0.013483,
  0.020659,
  0.011175,
  -0.057849,
  -0.062887,
  0.055734,
  -0.008741,
  0.101043,
  0.024723,
  -0.015664,
  0.020433,
  0.049665,
  0.012434,
  0.001514,
  -0.019303,
  0.033663,
  0.017977,
  -0.009544,
  -0.070680,
  -0.036516,
  0.004986,
  0.029908,
  0.027564,
  0.084030,
  0.018770,
  -0.031292,
  0.055152,
  -0.036922,
  0.053534,
  -0.050066,
  0.035738,
  -0.014624,
  0.015761,
  -0.046450,
  0.015084,
  0.075131,
  0.016104,
  -0.043468,
  -0.048525,
  0.021232,
  -0.007551,
  -0.022925,
  -0.013126,
  -0.013256,
  -0.016103,
  -0.009644,
  0.027180,
  0.048668,
  0.057460,
  0.003966,
  0.018777,
  0.047104,
  0.009184,
  0.017401,
  0.024536,
  -0.013189,
  0.030586,
  0.002115,
  -0.013309,
  0.028005,
  -0.063314,
  0.025729,
  0.006306,
  -0.042559,
  0.057196,
  -0.029998,
  -0.007203,
  -0.041927,
  -0.064276,
  0.040721,
  -0.011273,
  -0.020063,
  0.017385,
  0.063103,
  0.026684,
  -0.000167,
  0.010886,
  -0.006121,
  -0.096263,
  -0.034633,
  0.024208,
  0.034808,
  0.037794,
  0.042565,
  0.028751,
  -0.000580,
  0.017814,
  0.023429,
  0.002901,
  -0.053057,
  -0.073014,
  0.044351,
  -0.008964,
  0.006816,
  -0.006107,
  0.019650,
  0.033635,
  -0.071450,
  0.026156,
  0.034641,
  0.011046,
  -0.001261,
  -0.014633,
  0.006999,
  0.027588,
  0.002373,
  -0.022433,
  -0.008628,
  -0.043688,
  0.063362,
  0.022137,
  -0.025341,
  -0.002067,
  -0.002526,
  0.033218,
  0.019474,
  -0.005436,
  -0.024503,
  0.049974,
  -0.005875,
  0.042217,
  0.028586,
  -0.006344,
  -0.030431,
  0.021343,
  0.038385,
  0.001318,
  -0.017487,
  -0.000044,
  0.042999,
  -0.016719,
  -0.001780,
  -0.007376,
  0.079092,
  0.016021,
  -0.049081,
  -0.000103,
  0.032529,
  -0.031564,
  0.014103,
  -0.008527,
  0.013569,
  0.037421,
  0.028959,
  -0.037781,
  0.014436,
  -0.047363,
  0.022489,
  -0.008668,
  -0.012281,
  -0.026073,
  0.005173,
  0.012558,
  0.020805,
  -0.037039,
  0.001422,
  0.014852,
  0.035216,
  0.046866,
  0.015961,
  0.023500,
  0.011153,
  0.022734,
  0.061650,
  -0.039383,
  -0.003704,
  0.054747,
  -0.071179,
  -0.008958,
  -0.014552,
  -0.006066,
  -0.003359,
  -0.023359,
  -0.025390,
  -0.020142,
  -0.018951,
  -0.030227,
  -0.020463,
  -0.013802,
  -0.018987,
  -0.011640,
  -0.011112,
  -0.032827,
  0.010697,
  0.011404,
  0.004127,
  0.035416,
  -0.001353,
  0.016722,
  -0.003064,
  -0.000658,
  -0.036330,
  -0.003446,
  -0.062686,
  0.015871,
  -0.040515,
  -0.012547,
  0.019461,
  0.024081,
  -0.015273,
  0.066594,
  0.028293,
  -0.007025,
  0.020820,
  -0.012295,
  0.016076,
  -0.030459,
  0.037187,
  0.040869,
  0.036202,
  0.014328,
  -0.034957,
  -0.010501,
  -0.029058,
  0.010621,
  -0.015710,
  0.020505,
  0.014730,
  -0.002430,
  0.046009,
  -0.057320,
  -0.006934,
  -0.023342,
  0.029184,
  -0.015939,
  -0.003628,
  0.011965,
  0.038656,
  0.031106,
  0.023735,
  0.008491,
  0.017670,
  0.004802,
  0.032757,
  0.009179,
  -0.020481,
  0.035712,
  0.047778,
  -0.017802,
  0.070715,
  -0.078240,
  -0.029493,
  0.038612,
  -0.032414,
  -0.063032,
  -0.044110,
  0.029956,
  0.008738,
  -0.046523,
  0.001690,
  0.031364,
  -0.043701,
  0.079032,
  -0.004064,
  0.015259,
  0.051579,
  0.015810,
  -0.024106,
  -0.050624,
  -0.050141,
  0.002115,
  0.072391,
  0.020167,
  0.012139,
  0.023851,
  0.014144,
  -0.008382,
  -0.041898,
  -0.038047,
  -0.019132,
  -0.025640,
  0.041078,
  0.008188,
  0.009677,
  0.007120,
  0.017219,
  -0.041637,
  -0.026576,
  -0.021088,
  0.014348,
  -0.028625,
  0.007217,
  -0.072983,
  0.049894,
  -0.075032,
  -0.001237,
  -0.000745,
  0.043133,
  -0.012142,
  -0.041442,
  -0.026318,
  0.013472,
  0.000219,
  0.015463,
  0.024083,
  -0.014147,
  0.033877,
  0.044771,
  0.032905,
  0.048536,
  0.035050,
  0.043294,
  0.042702,
  -0.019781,
  0.038821,
  -0.012106,
  0.032538,
  0.032454,
  0.042430,
  -0.052352,
  -0.019926,
  0.010181,
  -0.030904,
  -0.009708,
  -0.031295,
  -0.020898,
  -0.029035,
  -0.020964,
  0.003734,
  -0.027263,
  0.056459,
  0.003911,
  0.065906,
  0.040345,
  0.007387,
  0.012014,
  -0.031974,
  -0.044795,
  -0.054702,
  -0.002423,
  0.048093,
  0.013036,
  0.024317,
  0.028957,
  -0.037550,
  0.030134,
  0.012983,
  -0.010964,
  0.007919,
  0.015425,
  0.027177,
  -0.040440,
  0.031913,
  -0.003927,
  -0.006518,
  0.032583,
  0.038632,
  -0.036739,
  0.009561,
  -0.015239,
  -0.027387,
  0.016517,
  0.031695,
  -0.053763,
  0.001324,
  0.016302,
  -0.004448,
  0.009711,
  0.022722,
  -0.037920,
  0.031871,
  0.020750,
  0.012736,
  -0.019869,
  0.025594,
  -0.043096,
  -0.013190,
  0.046319,
  0.022240,
  0.020373,
  0.030088,
  0.002689,
  0.023757,
  0.023037,
  0.001063,
  -0.014799,
  -0.014577,
  0.020476,
  0.011236,
  -0.017831,
  -0.002491,
  -0.018221,
  0.010495,
  -0.021352,
  0.027962,
  0.003097,
  0.007899,
  0.020649,
  -0.001013,
  -0.074236,
  0.008396,
  0.029789,
  -0.018396,
  0.007548,
  0.021894,
  0.014869,
  -0.053868,
  0.007836,
  0.044915,
  -0.016859,
  -0.013045,
  -0.021191,
  0.005559,
  0.035125,
  0.008564,
  -0.038190,
  0.073590,
  -0.023192,
  -0.041814,
  -0.022736,
  0.027394,
  0.048883,
  -0.038248,
  0.052162,
  -0.045998,
  -0.021722,
  0.073512,
  0.007127,
  0.045707,
  -0.003569,
  0.006185,
  -0.060424,
  0.011218,
  -0.014599,
  0.004026,
  -0.021001,
  0.004304,
  -0.039687,
  0.055465,
  0.040158,
  -0.006195,
  0.027140,
  0.039613,
  0.065693,
  -0.081388,
  -0.021853,
  -0.005511,
  -0.010625,
  0.057507,
  0.047896,
  0.005529,
  0.049345,
  0.028470,
  0.003276,
  -0.016522,
  0.035172,
  -0.016387,
  -0.030202,
  0.014366,
  0.043639,
  -0.043171,
  -0.001483,
  -0.009638,
  -0.010080,
  -0.005877,
  0.034956,
  0.022433,
  -0.061482,
  0.051386,
  0.012090,
  -0.051036,
  -0.001060,
  -0.005120,
  0.007362,
  -0.035768,
  -0.017803,
  -0.079060,
  -0.007107,
  0.047172,
  -0.026894,
  -0.021701,
  0.003686,
  0.007869,
  -0.038554,
  -0.028239,
  0.041367,
  0.006734,
  -0.050923,
  -0.028696,
  -0.045062,
  -0.013155,
  -0.012828,
  0.057005,
  0.025863,
  0.045739,
  -0.016189,
  -0.031832,
  -0.054623,
  0.018637,
  -0.087135,
  0.007321,
  -0.015000,
  0.026863,
  -0.017041,
  -0.012682,
  0.064204,
  -0.035729,
  0.048798,
  -0.040110,
  0.012422,
  0.037689,
  0.011977,
  0.023107,
  0.008221,
  -0.009581,
  0.042300,
  0.033224,
  0.024547,
  -0.044458,
  -0.000336,
  0.011057,
  0.059725,
  0.024168,
  -0.090795,
  -0.040813,
  0.025740,
  0.014729,
  -0.020750,
  -0.038375,
  -0.039527,
  0.003964,
  -0.038662,
  0.066963,
  0.013773,
  0.031972,
  -0.039219,
  -0.005037,
  -0.010636,
  0.026063,
  -0.021485,
  -0.013505,
  0.015815,
  -0.013451,
  -0.035576,
  0.042128,
  -0.015446,
  -0.057133,
  -0.028208,
  -0.030819,
  -0.013431,
  0.025149,
  0.037411,
  0.015409,
  0.038360,
  -0.001672,
  -0.009909,
  -0.037599,
  0.008216,
  0.070448,
  -0.036105,
  -0.076139,
  -0.048439,
  0.048006,
  -0.024327,
  -0.002300,
  -0.068493,
  -0.039635,
  0.002680,
  -0.035943,
  0.015466,
  -0.012368,
  0.012074,
  0.047944,
  0.009099,
  0.008431,
  -0.018469,
  0.032037,
  0.007894,
  -0.057200,
  0.034605,
  0.015017,
  0.009050,
  -0.025429,
  -0.031763,
  0.004320,
  -0.021413,
  -0.035693,
  -0.002944,
  -0.027557,
  0.009503,
  0.049910,
  0.044748,
  -0.082659,
  -0.045614,
  -0.012334,
  -0.036623,
  -0.022075,
  -0.025609,
  -0.011956,
  0.010610,
  0.027273,
  0.013707,
  0.031733,
  -0.006654,
  0.035068,
  0.023022,
  -0.009796,
  -0.039350,
  0.043226,
  -0.000775,
  0.040070,
  0.018454,
  0.048361,
  -0.034772,
  0.040183,
  0.029942,
  0.018848,
  -0.057387,
  0.080374,
  0.017326,
  -0.001156,
  -0.040059,
  0.073547,
  -0.011897,
  -0.007892,
  0.032227,
  0.037999,
  0.046925,
  -0.031720,
  0.035009,
  -0.031685,
  -0.008331,
  -0.029816,
  0.062593,
  -0.027522,
  0.048891,
  0.009871,
  -0.022297,
  0.004935,
  -0.075020,
  0.053720,
  0.010362,
  -0.089478,
  -0.010311,
  0.011025,
  -0.019931,
  0.028377,
  -0.058261,
  -0.004178,
  0.010378,
  0.011926,
  -0.012298,
  0.067058,
  -0.017802,
  -0.013605,
  -0.029885,
  -0.014755,
  0.000084,
  -0.018973,
  0.014727,
  -0.043176,
  -0.011868,
  -0.027950,
  0.007181,
  0.055912,
  0.016443,
  0.048043,
  0.012055,
  -0.001842,
  0.006338,
  0.042130,
  -0.000108,
  0.024317,
  -0.034364,
  -0.022760,
  -0.029068,
  0.009837,
  0.013339,
  -0.006067,
  0.008612,
  0.042979,
  0.008610,
  0.014642,
  -0.012873,
  -0.034158,
  0.016385,
  0.035475,
  0.024871,
  -0.013863,
  -0.004288,
  -0.048522,
  -0.019691,
  0.018559,
  -0.027924,
  0.032900,
  0.005432,
  0.051628,
  0.019811,
  -0.014824,
  0.016219,
  0.021808,
  0.019977,
  0.024889,
  -0.030190,
  0.023471,
  -0.016618,
  0.019396,
  -0.000560,
  0.075124,
  0.049839,
  -0.036351,
  0.030892,
  0.036183,
  0.007775,
  -0.029119,
  0.015950,
  0.032907,
  -0.036126,
  0.005067,
  0.006966,
  0.015907,
  0.037780,
  0.008083,
  -0.020594,
  -0.011687,
  -0.034264,
  0.013870,
  0.014663,
  -0.082107,
  0.030871,
  -0.011899,
  0.046528,
  0.024615,
  0.024320,
  0.009962,
  0.056064,
  0.045574,
  -0.037796,
  -0.007945,
  -0.046691,
  0.013466,
  -0.001797,
  0.058470,
  -0.057596,
  0.010724,
  0.011909,
  -0.001907,
  0.047761,
  -0.057368,
  -0.056395,
  -0.012034,
  -0.035998,
  0.021377,
  0.020609,
  -0.014873,
  0.020344,
  0.025691,
  -0.005068,
  -0.000356,
  0.016942,
  0.009595,
  -0.040690,
  0.048142,
  0.032494,
  0.036530,
  -0.028813,
  0.004975,
  0.046163,
  -0.020672,
  0.007365,
  0.026764,
  -0.063517,
  -0.004609,
  -0.012242,
  0.018944,
  0.028400,
  0.008141,
  0.022489,
  0.022021,
  0.020213,
  -0.062203,
  0.001028,
  -0.014122,
  -0.064530,
  -0.034488,
  0.019084,
  -0.008367,
  -0.038872,
  0.007796,
  0.057216,
  -0.000126,
  -0.007565,
  0.002633,
  0.028331,
  -0.008389,
  -0.045626,
  -0.070141,
  -0.004556,
  -0.017025,
  -0.013687,
  0.063285,
  -0.048341,
  0.013632,
  0.006723,
  -0.005571,
  -0.008776,
  -0.013363,
  0.006668,
  0.021551,
  -0.002238,
  -0.004260,
  0.054360,
  -0.052544,
  -0.046889,
  -0.008199,
  -0.010832,
  -0.014940,
  -0.067860,
  -0.015817,
  -0.026807,
  -0.002326,
  -0.023622,
  0.022792,
  0.019829,
  0.001026,
  0.031077,
  0.019618,
  -0.005557,
  -0.019225,
  0.010983,
  -0.013931,
  0.002089,
  0.000309,
  -0.015733,
  -0.022677,
  -0.016228,
  0.051250,
  0.009736,
  -0.021234,
  -0.020613,
  -0.026519,
  -0.026081,
  0.016825,
  0.010986,
  -0.009126,
  0.031242,
  -0.005453,
  0.039342,
  -0.032996,
  0.002132,
  -0.099748,
  -0.023648,
  -0.034954,
  0.025077,
  -0.019530,
  0.008270,
  0.000477,
  -0.018391,
  0.002259,
  -0.023997,
  0.033204,
  -0.015260,
  -0.004761,
  -0.016413,
  -0.047279,
  0.017246,
  -0.013527,
  0.028943,
  -0.057458,
  0.024751,
  -0.053319,
  0.085023,
  -0.027352,
  -0.019200,
  -0.029740,
  -0.003683,
  -0.010508,
  -0.051039,
  -0.050500,
  0.010275,
  -0.011355,
  -0.030026,
  -0.050846,
  0.006902,
  -0.034710,
  0.015172,
  0.013213,
  -0.017210,
  0.034308,
  -0.014876,
  -0.025242,
  -0.046014,
  0.016595,
  0.015053,
  -0.030514,
  -0.057616,
  0.011399,
  -0.038457,
  0.002804,
  -0.049039,
  -0.000542,
  0.039119,
  -0.037081,
  -0.025735,
  0.010189,
  -0.014078,
  -0.055979,
  -0.035713,
  -0.018577,
  0.024749,
  0.065428,
  -0.001975,
  -0.027900,
  -0.028391,
  -0.000927,
  -0.005578,
  -0.014051,
  -0.027485,
  -0.047003,
  -0.004138,
  0.029651,
  0.017832,
  -0.021827,
  -0.041581,
  -0.027142,
  -0.019837,
  0.037878,
  0.004360,
  0.048357,
  -0.014998,
  0.009406,
  0.001950,
